{"learner":{"attributes":{"best_iteration":"99","best_ntree_limit":"100","scikit_learn":"{\"n_estimators\": 100, \"objective\": \"reg:squarederror\", \"max_depth\": null, \"max_leaves\": null, \"max_bin\": null, \"grow_policy\": null, \"learning_rate\": null, \"verbosity\": null, \"booster\": null, \"tree_method\": null, \"gamma\": null, \"min_child_weight\": null, \"max_delta_step\": null, \"subsample\": null, \"sampling_method\": null, \"colsample_bytree\": null, \"colsample_bylevel\": null, \"colsample_bynode\": null, \"reg_alpha\": null, \"reg_lambda\": null, \"scale_pos_weight\": null, \"base_score\": null, \"missing\": NaN, \"num_parallel_tree\": null, \"random_state\": null, \"n_jobs\": null, \"monotone_constraints\": null, \"interaction_constraints\": null, \"importance_type\": null, \"gpu_id\": null, \"validate_parameters\": null, \"predictor\": null, \"enable_categorical\": false, \"max_cat_to_onehot\": null, \"eval_metric\": null, \"early_stopping_rounds\": null, \"callbacks\": null, \"evals_result_\": {\"validation_0\": {\"rmse\": [0.26885406884132423, 0.19086748076551951, 0.1366483455563432, 0.0979999355676546, 0.0714475266675829, 0.05327915117159995, 0.04029708739439949, 0.03192217675072035, 0.02661156007362888, 0.02312094674995913, 0.02088293414461207, 0.01956699053940186, 0.01883096072483333, 0.01852663740508135, 0.01790121511171976, 0.01750014760940208, 0.01731436296447495, 0.01725312879367251, 0.01661652218758884, 0.01661685686112748, 0.01646819556045323, 0.01611798675507915, 0.01611104046209431, 0.01604957066097754, 0.01593902552124156, 0.01593756057747724, 0.01592595201251361, 0.01582268608277012, 0.01576939903701673, 0.01577695836011068, 0.01580563137520341, 0.01577423387644742, 0.01577607273223202, 0.01580120703230855, 0.01576273751339983, 0.01573103967786248, 0.0157682502773684, 0.0157368851648435, 0.01574649074174893, 0.01570902383075621, 0.01566458001582402, 0.01569140246315359, 0.01570409629423868, 0.01569978191926757, 0.0156771211717548, 0.01569146279946325, 0.01562462341309173, 0.01564946677312756, 0.01562183938537065, 0.01560248992295691, 0.01557823026637512, 0.01554004264810836, 0.01553914868664832, 0.01551832987398062, 0.01552428929146812, 0.01556527729441579, 0.01554021036175907, 0.01554017495369204, 0.01553009276513432, 0.01552784574162487, 0.01550048588217242, 0.01547870824546571, 0.01546815300858817, 0.01545767472865694, 0.0154459099356478, 0.01545307873576448, 0.01543710009811907, 0.01542669335789381, 0.01540969957578093, 0.01541949144370062, 0.01542954422213198, 0.01540111159274652, 0.01540244849152352, 0.01537899849101433, 0.01538257249131605, 0.01537661030983228, 0.0153762717239296, 0.01537445323320621, 0.01534499781439198, 0.01532791805051281, 0.01531256706775305, 0.0153164358020323, 0.01531281426899408, 0.01527628163107662, 0.01526493680559602, 0.01526895096958951, 0.01526434139347054, 0.01527206642031259, 0.01525912088089811, 0.01526744880770931, 0.01526057428514621, 0.01525848394037589, 0.01525611684276233, 0.0152563631524294, 0.01525179330234998, 0.01525210559566804, 0.01524852178138297, 0.01523968313530615, 0.01523630425001406, 0.01523903306161764]}}, \"_estimator_type\": \"regressor\"}"},"feature_names":[],"feature_types":[],"gradient_booster":{"model":{"gbtree_model_param":{"num_parallel_tree":"1","num_trees":"100","size_leaf_vector":"0"},"tree_info":[0,0,0,0,0,0,0,0,0,0,0,0,0,0,0,0,0,0,0,0,0,0,0,0,0,0,0,0,0,0,0,0,0,0,0,0,0,0,0,0,0,0,0,0,0,0,0,0,0,0,0,0,0,0,0,0,0,0,0,0,0,0,0,0,0,0,0,0,0,0,0,0,0,0,0,0,0,0,0,0,0,0,0,0,0,0,0,0,0,0,0,0,0,0,0,0,0,0,0,0],"trees":[{"base_weights":[-2.9355687E-1,-4.343133E-1,-7.678745E-2,-4.7076905E-1,-2.3920639E-1,-1.1912839E-1,4.0471745E-1,-4.7951326E-1,-4.1762272E-1,-1.7271227E-1,-3.5357875E-1,-1.4441264E-1,7.071264E-2,1.9837338E-1,4.265777E-1,-4.8258993E-1,-3.6557958E-1,-2.569905E-1,-4.428298E-1,-1.3502975E-1,-3.619098E-1,-1.782617E-1,-3.615031E-1,-3.3162478E-1,-1.323953E-1,2.9447763E-3,7.859532E-2,-3.1830135E-1,-4.8437726E-1,-5.999279E-2,-3.750255E-1,-1.828685E-1,-3.7311065E-1,-1.6181536E-1,-1.2762795E-1,-1.970101E-1,-5.163406E-2,-3.6827937E-1,-1.9216397E-1,-1.1344632E-1,-2.183698E-1,-9.874831E-3,1.773935E-2,6.7996755E-2,9.2128776E-2,-1.2739468E-1,-4.8465323E-1,-2.0301792E-1,-4.723923E-2,-1.8721141E-1,-1.08810425E-1,-2.372184E-1,-1.10948026E-1,-1.2623834E-2,1.9350946E-3,-3.8941056E-3,2.412124E-2,6.8736814E-2,1.6976953E-2],"categories":[],"categories_nodes":[],"categories_segments":[],"categories_sizes":[],"default_left":[1,1,1,1,1,1,1,1,1,1,1,1,1,0,0,1,1,1,0,1,0,1,0,1,1,1,1,0,1,0,0,0,0,0,0,0,0,0,1,1,1,1,1,1,0,0,0,0,0,0,0,0,0,0,0,0,0,0,0],"id":0,"left_children":[1,3,5,7,9,11,13,15,17,19,21,23,25,-1,-1,27,29,31,-1,33,-1,35,-1,37,39,41,43,-1,45,-1,-1,-1,-1,-1,-1,-1,-1,-1,47,49,51,53,55,57,-1,-1,-1,-1,-1,-1,-1,-1,-1,-1,-1,-1,-1,-1,-1],"loss_changes":[6.102054E1,8.515167E0,1.613385E1,2.7423096E-1,1.4067154E0,3.4950027E0,2.0406532E-1,1.2854004E-1,5.016556E-1,8.351817E-1,3.2806396E-2,1.3982105E0,4.5709103E-2,0E0,0E0,9.365845E-2,5.543828E-2,1.2973213E-1,0E0,1.6534328E-4,0E0,1.6978979E-3,0E0,1.2348127E-1,9.592209E-1,2.0717792E-3,4.780054E-3,0E0,2.0309448E-2,0E0,0E0,0E0,0E0,0E0,0E0,0E0,0E0,0E0,6.139636E-3,1.4958668E-1,1.923542E-1,2.1922152E-4,7.842424E-4,6.0768425E-4,0E0,0E0,0E0,0E0,0E0,0E0,0E0,0E0,0E0,0E0,0E0,0E0,0E0,0E0,0E0],"parents":[2147483647,0,0,1,1,2,2,3,3,4,4,5,5,6,6,7,7,8,8,9,9,10,10,11,11,12,12,15,15,16,16,17,17,19,19,21,21,23,23,24,24,25,25,26,26,28,28,38,38,39,39,40,40,41,41,42,42,43,43],"right_children":[2,4,6,8,10,12,14,16,18,20,22,24,26,-1,-1,28,30,32,-1,34,-1,36,-1,38,40,42,44,-1,46,-1,-1,-1,-1,-1,-1,-1,-1,-1,48,50,52,54,56,58,-1,-1,-1,-1,-1,-1,-1,-1,-1,-1,-1,-1,-1,-1,-1],"split_conditions":[1.8573138E-1,7.0681944E-2,6.238215E-1,2.339307E-2,8.5714287E-1,4.6173844E-1,7.866857E-1,1.14922985E-1,6.428572E-1,7.1428575E-2,1.9728523E-5,9.942928E-1,5.2135956E-1,5.9512015E-2,1.2797332E-1,3.5714287E-1,1.1455271E-5,7.1428575E-2,-1.3284895E-1,1.0158582E-1,-1.08572945E-1,1.5366852E-1,-1.08450934E-1,2.1113652E-1,2.6825964E-2,4.907056E-1,5.9449375E-1,-9.549041E-2,2.8638178E-6,-1.7997839E-2,-1.12507656E-1,-5.486055E-2,-1.119332E-1,-4.854461E-2,-3.828839E-2,-5.910303E-2,-1.5490218E-2,-1.1048382E-1,3.6355126E-1,9.987593E-1,3.2977992E-1,9.6253103E-1,4.71464E-1,8.34091E-2,2.7638635E-2,-3.8218405E-2,-1.4539598E-1,-6.090538E-2,-1.4171769E-2,-5.6163426E-2,-3.264313E-2,-7.1165524E-2,-3.328441E-2,-3.7871504E-3,5.805284E-4,-1.1682317E-3,7.236372E-3,2.0621045E-2,5.093086E-3],"split_indices":[14,12,12,13,1,12,12,14,1,0,9,3,12,0,0,1,9,0,0,12,0,12,0,12,6,12,12,0,9,0,0,0,0,0,0,0,0,0,12,3,12,2,2,6,0,0,0,0,0,0,0,0,0,0,0,0,0,0,0],"split_type":[0,0,0,0,0,0,0,0,0,0,0,0,0,0,0,0,0,0,0,0,0,0,0,0,0,0,0,0,0,0,0,0,0,0,0,0,0,0,0,0,0,0,0,0,0,0,0,0,0,0,0,0,0,0,0,0,0,0,0],"sum_hessian":[2E3,1.212E3,7.88E2,1.02E3,1.92E2,7.25E2,6.3E1,8.69E2,1.51E2,1.23E2,6.9E1,6.4E2,8.5E1,7E0,5.6E1,8.43E2,2.6E1,2.2E1,1.29E2,1.04E2,1.9E1,4E0,6.5E1,3.7E1,6.03E2,9E0,7.6E1,1.1E1,8.32E2,1E0,2.5E1,1.5E1,7E0,1.8E1,8.6E1,3E0,1E0,2.8E1,9E0,4.96E2,1.07E2,5E0,4E0,4.6E1,3E1,1E0,8.31E2,8E0,1E0,2.7E1,4.69E2,9E1,1.7E1,4E0,1E0,1E0,3E0,4.5E1,1E0],"tree_param":{"num_deleted":"0","num_feature":"15","num_nodes":"59","size_leaf_vector":"0"}},{"base_weights":[-2.0610091E-1,-3.04916E-1,-5.3922456E-2,-3.3053634E-1,-1.7029141E-1,-8.383422E-2,2.8623167E-1,-3.3821803E-1,-3.0227888E-1,-1.2254496E-1,-2.508194E-1,-1.0302032E-1,4.625762E-2,1.6510276E-1,3.0560547E-1,-2.3076847E-1,-3.394359E-1,-1.3335922E-1,-3.0626148E-1,-9.568688E-2,-2.587655E-1,-2.5781336E-1,-1.490451E-1,-2.2416663E-1,-9.110472E-2,4.371447E-3,5.612051E-2,6.957438E-2,1.786008E-1,-3.236074E-1,-1.438981E-1,-3.4058797E-1,-2.4517745E-1,-2.4391474E-1,-3.17473E-1,-1.1730556E-1,-8.993187E-2,-4.3888956E-2,-1.592563E-1,-2.4432711E-1,-7.2662905E-2,-7.853962E-2,-1.7432748E-1,1.3874377E-2,-1.0429379E-2,4.895003E-2,6.666455E-2,-2.5007766E-1,-8.86546E-2,-3.3782423E-1,-2.6079682E-1,-9.057007E-2,-1.2627612E-2,-7.5345635E-2,-1.933783E-1,-1.4117913E-1,-2.1934402E-1,-1.1730924E-2,1.726858E-2,-2.7267337E-3,-1.4505619E-2],"categories":[],"categories_nodes":[],"categories_segments":[],"categories_sizes":[],"default_left":[1,1,1,1,1,1,1,1,1,1,1,1,1,1,0,1,1,0,1,1,0,0,1,1,1,1,1,0,0,0,0,0,0,1,1,0,0,0,0,0,1,1,1,1,1,0,0,0,0,0,0,0,0,0,0,0,0,0,0,0,0],"id":1,"left_children":[1,3,5,7,9,11,13,15,17,19,21,23,25,27,-1,29,31,-1,33,35,-1,-1,37,39,41,43,45,-1,-1,-1,-1,-1,-1,47,49,-1,-1,-1,-1,-1,51,53,55,57,59,-1,-1,-1,-1,-1,-1,-1,-1,-1,-1,-1,-1,-1,-1,-1,-1],"loss_changes":[3.0073654E1,4.1275024E0,8.051764E0,1.1873627E-1,7.228689E-1,1.8168283E0,9.973431E-2,2.5306702E-2,1.1186981E-1,4.32567E-1,1.28240585E-2,8.933325E-1,3.858784E-2,1.7578602E-3,0E0,5.021298E-2,1.3046265E-3,0E0,7.7041626E-2,2.6385784E-3,0E0,0E0,5.2680075E-4,1.5329218E-1,5.9072447E-1,2.8170738E-3,2.4828017E-3,0E0,0E0,0E0,0E0,0E0,0E0,1.4190197E-2,1.24126434E-1,0E0,0E0,0E0,0E0,0E0,7.4568093E-3,1.7029381E-1,8.095002E-2,1.2454912E-3,2.1162973E-4,0E0,0E0,0E0,0E0,0E0,0E0,0E0,0E0,0E0,0E0,0E0,0E0,0E0,0E0,0E0,0E0],"parents":[2147483647,0,0,1,1,2,2,3,3,4,4,5,5,6,6,7,7,8,8,9,9,10,10,11,11,12,12,13,13,15,15,16,16,18,18,19,19,22,22,23,23,24,24,25,25,26,26,33,33,34,34,40,40,41,41,42,42,43,43,44,44],"right_children":[2,4,6,8,10,12,14,16,18,20,22,24,26,28,-1,30,32,-1,34,36,-1,-1,38,40,42,44,46,-1,-1,-1,-1,-1,-1,48,50,-1,-1,-1,-1,-1,52,54,56,58,60,-1,-1,-1,-1,-1,-1,-1,-1,-1,-1,-1,-1,-1,-1,-1,-1],"split_conditions":[1.8573138E-1,7.0059076E-2,6.238215E-1,2.9297933E-2,8.5714287E-1,4.282113E-1,8.3527035E-1,3.5714287E-1,5E-1,7.1428575E-2,1.772922E-1,9.9727046E-1,5.3342485E-1,6.6352534E-1,9.1681644E-2,4.71464E-1,1.24865495E-1,-4.000777E-2,5.000188E-1,1.0041539E-1,-7.762965E-2,-7.7344015E-2,1.7819311E-5,2.6820505E-1,1.9766848E-1,1.07226804E-1,6.055428E-1,2.0872314E-2,5.3580243E-2,-9.708222E-2,-4.316943E-2,-1.021764E-1,-7.3553234E-2,1.6972327E-1,4.71464E-1,-3.519167E-2,-2.6979562E-2,-1.3166687E-2,-4.777689E-2,-7.3298134E-2,3.904257E-1,4.0504265E-6,4.2501676E-1,2.4336192E-1,1.8411997E-1,1.468501E-2,1.9999364E-2,-7.50233E-2,-2.659638E-2,-1.01347275E-1,-7.8239046E-2,-2.7171021E-2,-3.7882838E-3,-2.260369E-2,-5.801349E-2,-4.235374E-2,-6.580321E-2,-3.5192773E-3,5.180574E-3,-8.1802014E-4,-4.3516858E-3],"split_indices":[14,12,12,12,1,12,12,1,1,0,14,3,12,12,0,2,14,0,9,12,0,0,9,12,6,6,12,0,0,0,0,0,0,14,2,0,0,0,0,0,12,10,6,13,6,0,0,0,0,0,0,0,0,0,0,0,0,0,0,0,0],"split_type":[0,0,0,0,0,0,0,0,0,0,0,0,0,0,0,0,0,0,0,0,0,0,0,0,0,0,0,0,0,0,0,0,0,0,0,0,0,0,0,0,0,0,0,0,0,0,0,0,0,0,0,0,0,0,0,0,0,0,0,0,0],"sum_hessian":[2E3,1.212E3,7.88E2,1.017E3,1.95E2,7.25E2,6.3E1,7.91E2,2.26E2,1.24E2,7.1E1,6.32E2,9.3E1,1E1,5.3E1,1.1E1,7.8E2,6E0,2.2E2,1.05E2,1.9E1,6.5E1,6E0,5.5E1,5.77E2,1.8E1,7.5E1,2E0,8E0,4E0,7E0,7.68E2,1.2E1,3.7E1,1.83E2,1.8E1,8.7E1,1E0,5E0,4.8E1,7E0,5.03E2,7.4E1,1.1E1,7E0,4.8E1,2.7E1,3.5E1,2E0,1.31E2,5.2E1,5E0,2E0,4.91E2,1.2E1,4.5E1,2.9E1,1E0,1E1,3E0,4E0],"tree_param":{"num_deleted":"0","num_feature":"15","num_nodes":"61","size_leaf_vector":"0"}},{"base_weights":[-1.4477588E-1,-2.1419574E-1,-3.7867043E-2,-2.2812063E-1,-9.332544E-2,-5.904464E-2,2.0295799E-1,-2.3602186E-1,-1.9535516E-1,-6.325889E-2,-1.5713874E-1,-7.278148E-2,3.186155E-2,9.565429E-2,2.1240917E-1,-2.3691426E-1,-1.523978E-1,-1.0462231E-1,-2.1342456E-1,-3.606249E-2,-1.6256216E-1,-1.6155723E-1,-6.419319E-2,-2.83773E-4,3.9283343E-2,-2.3704283E-1,-6.323812E-2,-3.769569E-2,-1.5939838E-1,-8.012019E-2,-1.8649024E-1,-1.2785864E-1,-2.16661E-1,-1.7822714E-1,-7.867511E-2,-5.6322865E-2,-1.3500449E-1,-5.7148463E-3,1.2436028E-2,3.406817E-2,4.7379427E-2,-9.174566E-2,-4.6532147E-2,-1.5411673E-1,-7.602883E-2,-2.2004241E-1,-1.5323888E-1,-2.1040519E-1,-1.551246E-1,-9.657402E-2,-3.7881624E-2,-1.6416076E-1,-5.432118E-2,-1.5534772E-1,-6.768697E-2,-7.2041657E-3,6.8231523E-3,3.4466017E-2,7.0878863E-3],"categories":[],"categories_nodes":[],"categories_segments":[],"categories_sizes":[],"default_left":[1,1,1,1,1,1,1,1,1,0,1,1,1,0,0,1,1,1,1,0,0,1,1,1,1,0,0,0,0,1,0,1,1,1,1,1,1,1,0,1,0,0,0,0,0,0,0,0,0,0,0,0,0,0,0,0,0,0,0],"id":2,"left_children":[1,3,5,7,9,11,13,15,17,-1,19,21,23,-1,-1,25,27,29,31,-1,-1,33,35,37,39,-1,-1,-1,-1,41,-1,43,45,47,49,51,53,55,-1,57,-1,-1,-1,-1,-1,-1,-1,-1,-1,-1,-1,-1,-1,-1,-1,-1,-1,-1,-1],"loss_changes":[1.484251E1,2.0203133E0,4.0359592E0,2.3530197E-1,2.337277E-1,9.089217E-1,4.4587612E-2,2.8896332E-2,3.3343983E-1,0E0,2.0403504E-2,4.7072387E-1,2.2914425E-2,0E0,0E0,4.2152405E-3,3.6271214E-3,6.1284006E-2,2.2146225E-2,0E0,0E0,6.196797E-2,3.139627E-1,1.3836311E-3,1.6792268E-3,0E0,0E0,0E0,0E0,7.8356415E-3,0E0,5.312413E-4,3.1671524E-3,8.136034E-4,4.3733716E-3,1.03544354E-1,6.7543864E-2,3.1057833E-4,0E0,3.0314177E-4,0E0,0E0,0E0,0E0,0E0,0E0,0E0,0E0,0E0,0E0,0E0,0E0,0E0,0E0,0E0,0E0,0E0,0E0,0E0],"parents":[2147483647,0,0,1,1,2,2,3,3,4,4,5,5,6,6,7,7,8,8,10,10,11,11,12,12,15,15,16,16,17,17,18,18,21,21,22,22,23,23,24,24,29,29,31,31,32,32,33,33,34,34,35,35,36,36,37,37,39,39],"right_children":[2,4,6,8,10,12,14,16,18,-1,20,22,24,-1,-1,26,28,30,32,-1,-1,34,36,38,40,-1,-1,-1,-1,42,-1,44,46,48,50,52,54,56,-1,58,-1,-1,-1,-1,-1,-1,-1,-1,-1,-1,-1,-1,-1,-1,-1,-1,-1,-1,-1],"split_conditions":[1.8573138E-1,1.0060808E-1,6.238215E-1,2.3133028E-2,8.5714287E-1,4.0671134E-1,7.5071824E-1,1.5384835E-1,6.428572E-1,-1.8977666E-2,2.1955937E-5,9.9727046E-1,5.123155E-1,2.8696287E-2,6.372275E-2,6.835928E-2,1.1455271E-5,7.1428575E-2,2.412916E-2,-1.0818748E-2,-4.876865E-2,1.6269565E-1,2.8370827E-1,9.6277916E-1,6.055428E-1,-7.111285E-2,-1.8971438E-2,-1.1308707E-2,-4.7819514E-2,4.71464E-1,-5.5947073E-2,9.5724344E-2,9.569621E-2,9.9081886E-1,9.913151E-1,3.0172698E-2,2.487674E-1,5.095667E-1,3.7308084E-3,8.34091E-2,1.4213828E-2,-2.7523698E-2,-1.3959644E-2,-4.623502E-2,-2.280865E-2,-6.6012725E-2,-4.5971666E-2,-6.312156E-2,-4.6537384E-2,-2.8972208E-2,-1.1364488E-2,-4.924823E-2,-1.6296355E-2,-4.6604317E-2,-2.0306092E-2,-2.1612498E-3,2.0469457E-3,1.0339806E-2,2.126366E-3],"split_indices":[14,12,12,13,1,12,12,14,1,0,9,3,12,0,0,12,9,0,13,0,0,13,6,2,12,0,0,0,0,2,0,14,12,3,3,12,12,12,0,6,0,0,0,0,0,0,0,0,0,0,0,0,0,0,0,0,0,0,0],"split_type":[0,0,0,0,0,0,0,0,0,0,0,0,0,0,0,0,0,0,0,0,0,0,0,0,0,0,0,0,0,0,0,0,0,0,0,0,0,0,0,0,0,0,0,0,0,0,0,0,0,0,0,0,0,0,0,0,0,0,0],"sum_hessian":[2E3,1.212E3,7.88E2,1.086E3,1.26E2,7.25E2,6.3E1,8.7E2,2.16E2,8.7E1,3.9E1,6.3E2,9.5E1,6E0,5.7E1,8.59E2,1.1E1,3.7E1,1.79E2,2E0,3.7E1,5.4E1,5.76E2,1.8E1,7.7E1,8.58E2,1E0,1E0,1E1,3E1,7E0,8E0,1.71E2,4.4E1,1E1,5.2E2,5.6E1,1.3E1,5E0,5E1,2.7E1,2.1E1,9E0,4E0,4E0,1.6E2,1.1E1,1.5E1,2.9E1,6E0,4E0,8E0,5.12E2,4.2E1,1.4E1,1.2E1,1E0,4.9E1,1E0],"tree_param":{"num_deleted":"0","num_feature":"15","num_nodes":"59","size_leaf_vector":"0"}},{"base_weights":[-1.01675935E-1,-1.5035437E-1,-2.6709378E-2,-1.6297325E-1,-8.404633E-2,-4.1678563E-2,1.4351466E-1,-1.7180592E-1,-1.5454893E-1,-5.9090983E-2,-1.2620425E-1,-5.1394664E-2,2.2618689E-2,9.084379E-2,1.5644562E-1,-1.0803878E-1,-1.7304994E-1,-1.4337695E-1,-1.7094335E-1,-4.6606302E-2,-1.2230523E-1,-1.4098713E-1,-9.462737E-2,-1.12240076E-1,-4.4686224E-2,1.0937963E-3,2.8268741E-2,3.6528647E-2,9.639007E-2,-1.890513E-1,-4.390111E-2,-1.4670996E-1,-7.0463836E-2,-1.7836459E-1,-1.2408876E-1,-5.700507E-2,-4.426579E-2,-5.4344244E-2,-1.066083E-1,-1.1980572E-1,-2.1659762E-2,-3.6170054E-2,-8.387347E-2,5.413306E-3,-8.318552E-3,2.4603533E-2,3.367326E-2,-1.520996E-1,-1.004791E-1,-2.7010838E-2,-1.1054049E-1,-1.8454276E-1,-5.5499423E-2,-9.80192E-2,-1.6494708E-1,-5.8856636E-2,-1.137875E-2,-1.371888E-1,-9.206782E-2,-3.273771E-2,3.307561E-4,-3.3489477E-2,-1.0562965E-1,-7.0910566E-2,-1.22508205E-1,-6.1489046E-3,7.6651E-3,-1.8203557E-3,-9.098192E-3,2.546291E-2,1.1948419E-2],"categories":[],"categories_nodes":[],"categories_segments":[],"categories_sizes":[],"default_left":[1,1,1,1,1,1,1,1,1,1,1,1,1,1,0,1,0,1,1,1,0,0,1,1,1,1,1,0,0,0,0,1,1,1,1,0,0,1,0,1,1,1,1,1,1,1,0,0,0,0,0,0,0,0,0,0,0,0,0,0,0,0,0,0,0,0,0,0,0,0,0],"id":3,"left_children":[1,3,5,7,9,11,13,15,17,19,21,23,25,27,-1,29,-1,31,33,35,-1,-1,37,39,41,43,45,-1,-1,-1,-1,47,49,51,53,-1,-1,55,-1,57,59,61,63,65,67,69,-1,-1,-1,-1,-1,-1,-1,-1,-1,-1,-1,-1,-1,-1,-1,-1,-1,-1,-1,-1,-1,-1,-1,-1,-1],"loss_changes":[7.2981434E0,1.0012608E0,2.0164444E0,4.9196243E-2,1.9874728E-1,4.547081E-1,2.9377341E-2,2.001667E-2,7.2748184E-2,9.295103E-2,2.0268083E-2,2.5254464E-1,1.1644293E-2,9.977072E-4,0E0,5.405189E-2,0E0,6.7914486E-2,5.088806E-2,5.6490302E-5,0E0,0E0,6.7548156E-3,3.9893568E-2,1.8718958E-1,8.9882215E-4,6.769784E-4,0E0,0E0,0E0,0E0,6.1211586E-2,2.4877422E-2,1.2563324E-1,1.7917097E-2,0E0,0E0,8.8130124E-4,0E0,1.4853001E-2,1.4724871E-3,8.397275E-2,4.189551E-2,4.376677E-4,1.8901832E-5,2.2866018E-4,0E0,0E0,0E0,0E0,0E0,0E0,0E0,0E0,0E0,0E0,0E0,0E0,0E0,0E0,0E0,0E0,0E0,0E0,0E0,0E0,0E0,0E0,0E0,0E0,0E0],"parents":[2147483647,0,0,1,1,2,2,3,3,4,4,5,5,6,6,7,7,8,8,9,9,10,10,11,11,12,12,13,13,15,15,17,17,18,18,19,19,22,22,23,23,24,24,25,25,26,26,31,31,32,32,33,33,34,34,37,37,39,39,40,40,41,41,42,42,43,43,44,44,45,45],"right_children":[2,4,6,8,10,12,14,16,18,20,22,24,26,28,-1,30,-1,32,34,36,-1,-1,38,40,42,44,46,-1,-1,-1,-1,48,50,52,54,-1,-1,56,-1,58,60,62,64,66,68,70,-1,-1,-1,-1,-1,-1,-1,-1,-1,-1,-1,-1,-1,-1,-1,-1,-1,-1,-1,-1,-1,-1,-1,-1,-1],"split_conditions":[1.8573138E-1,7.0059076E-2,6.238215E-1,8.318926E-3,8.5714287E-1,4.0671134E-1,8.7155974E-1,3.5714287E-1,1.1234452E-1,7.1428575E-2,1.291688E-1,9.987593E-1,5.3342485E-1,6.6352534E-1,4.693369E-2,4.71464E-1,-5.1914986E-2,6.395777E-2,8.5714287E-1,6.428572E-1,-3.669157E-2,-4.229614E-2,5.000188E-1,3.1035054E-1,2.7672883E-2,1.5609531E-1,6.055428E-1,1.0958594E-2,2.8917022E-2,-5.671539E-2,-1.3170333E-2,8.958626E-2,7.8571427E-1,4.71464E-1,9.4342434E-1,-1.7101523E-2,-1.3279738E-2,9.600496E-1,-3.1982493E-2,1.2103851E-1,3.904257E-1,2.4302558E-6,5.259505E-1,2.403866E-1,1.8411997E-1,5.417653E-2,1.0101979E-2,-4.562988E-2,-3.0143732E-2,-8.103251E-3,-3.3162147E-2,-5.536283E-2,-1.6649827E-2,-2.940576E-2,-4.9484126E-2,-1.7656991E-2,-3.4136253E-3,-4.1156642E-2,-2.7620347E-2,-9.821313E-3,9.922683E-5,-1.0046843E-2,-3.16889E-2,-2.127317E-2,-3.6752462E-2,-1.8446714E-3,2.2995302E-3,-5.461067E-4,-2.7294576E-3,7.6388735E-3,3.5845258E-3],"split_indices":[14,12,12,12,1,12,12,1,14,0,12,3,12,12,0,2,0,12,1,1,0,0,9,12,6,6,12,0,0,0,0,14,1,2,2,0,0,2,0,12,14,10,6,13,6,6,0,0,0,0,0,0,0,0,0,0,0,0,0,0,0,0,0,0,0,0,0,0,0,0,0],"split_type":[0,0,0,0,0,0,0,0,0,0,0,0,0,0,0,0,0,0,0,0,0,0,0,0,0,0,0,0,0,0,0,0,0,0,0,0,0,0,0,0,0,0,0,0,0,0,0,0,0,0,0,0,0,0,0,0,0,0,0,0,0,0,0,0,0,0,0,0,0,0,0],"sum_hessian":[2E3,1.212E3,7.88E2,1.017E3,1.95E2,7.25E2,6.3E1,4.87E2,5.3E2,1.24E2,7.1E1,6.3E2,9.5E1,1.4E1,4.9E1,1.1E1,4.76E2,3.21E2,2.09E2,1.05E2,1.9E1,4.6E1,2.5E1,6.1E1,5.69E2,2E1,7.5E1,2E0,1.2E1,4E0,7E0,3.06E2,1.5E1,1.78E2,3.1E1,1.5E1,9E1,7E0,1.8E1,5.6E1,5E0,4.69E2,1E2,1.4E1,6E0,4.8E1,2.7E1,2.72E2,3.4E1,8E0,7E0,1.69E2,9E0,2.1E1,1E1,6E0,1E0,3.2E1,2.4E1,3E0,2E0,4.53E2,1.6E1,7.7E1,2.3E1,2E0,1.2E1,1E0,5E0,4.4E1,4E0],"tree_param":{"num_deleted":"0","num_feature":"15","num_nodes":"71","size_leaf_vector":"0"}},{"base_weights":[-7.148555E-2,-1.0570326E-1,-1.8789021E-2,-1.1446412E-1,-5.966111E-2,-2.9395046E-2,1.0181664E-1,-1.2051373E-1,-1.0868884E-1,-4.1900273E-2,-8.966727E-2,-3.847692E-2,6.947174E-3,6.757322E-2,1.1092027E-1,-8.1450954E-2,-1.2124379E-1,-1.00727335E-1,-1.2037892E-1,-3.291103E-2,-8.744825E-2,-1.0658999E-1,-7.427229E-2,-8.5241E-2,-3.3425085E-2,-8.344242E-3,1.9321078E-2,2.9222906E-2,7.0964485E-2,-1.43679E-1,-3.2377068E-2,-1.02943785E-1,-5.1903773E-2,-1.2299711E-1,-6.183184E-2,-3.5934515E-2,-2.8351024E-2,-4.1885685E-2,-8.336843E-2,-9.300581E-2,-4.9019523E-2,-9.306823E-2,-2.9884772E-2,-1.1585042E-2,-8.480024E-4,2.0482413E-2,7.7545773E-3,-1.06964275E-1,-7.2573125E-2,-1.9807948E-2,-8.1523605E-2,-3.6678996E-2,-1.2457157E-1,-1.6457312E-2,-6.472356E-2,-8.402787E-3,-3.6258735E-2,-1.0037132E-1,-5.7189398E-2,-1.0155868E-1,-4.359505E-2,-3.9568737E-2,-1.5850767E-2,-1.0665193E-2,-1.8577151E-2,-3.819598E-3,7.217586E-3,1.7297894E-2,2.3818258E-2,9.110726E-3,-1.5473068E-3],"categories":[],"categories_nodes":[],"categories_segments":[],"categories_sizes":[],"default_left":[1,1,1,1,1,1,1,1,1,1,1,1,1,1,0,1,0,1,1,1,0,0,1,1,1,1,1,0,0,0,0,1,1,1,1,1,0,0,0,1,0,1,1,1,1,1,1,0,0,0,0,0,0,0,0,0,0,0,0,0,0,0,0,0,0,0,0,0,0,0,0],"id":4,"left_children":[1,3,5,7,9,11,13,15,17,19,21,23,25,27,-1,29,-1,31,33,35,-1,-1,37,39,41,43,45,-1,-1,-1,-1,47,49,51,53,55,-1,-1,-1,57,-1,59,61,63,65,67,69,-1,-1,-1,-1,-1,-1,-1,-1,-1,-1,-1,-1,-1,-1,-1,-1,-1,-1,-1,-1,-1,-1,-1,-1],"loss_changes":[3.6061258E0,4.824581E-1,1.0122396E0,2.2468567E-2,1.0069811E-1,2.3988754E-1,1.2456059E-2,4.0416718E-3,3.7294865E-2,4.830222E-2,1.0841131E-2,1.3440883E-1,2.7786542E-2,7.107854E-6,0E0,3.1993352E-2,0E0,2.9501915E-2,2.4585247E-2,4.4266135E-4,0E0,0E0,8.586377E-3,1.11911E-2,1.0828644E-1,1.5935679E-3,9.2920475E-4,0E0,0E0,0E0,0E0,2.9723406E-2,1.359595E-2,2.2611618E-2,3.7814304E-4,2.3090094E-4,0E0,0E0,0E0,6.131083E-3,0E0,7.7539682E-3,6.705341E-2,9.7728334E-5,5.3088926E-4,3.6347844E-4,1.2762973E-4,0E0,0E0,0E0,0E0,0E0,0E0,0E0,0E0,0E0,0E0,0E0,0E0,0E0,0E0,0E0,0E0,0E0,0E0,0E0,0E0,0E0,0E0,0E0,0E0],"parents":[2147483647,0,0,1,1,2,2,3,3,4,4,5,5,6,6,7,7,8,8,9,9,10,10,11,11,12,12,13,13,15,15,17,17,18,18,19,19,22,22,23,23,24,24,25,25,26,26,31,31,32,32,33,33,34,34,35,35,39,39,41,41,42,42,43,43,44,44,45,45,46,46],"right_children":[2,4,6,8,10,12,14,16,18,20,22,24,26,28,-1,30,-1,32,34,36,-1,-1,38,40,42,44,46,-1,-1,-1,-1,48,50,52,54,56,-1,-1,-1,58,-1,60,62,64,66,68,70,-1,-1,-1,-1,-1,-1,-1,-1,-1,-1,-1,-1,-1,-1,-1,-1,-1,-1,-1,-1,-1,-1,-1,-1],"split_conditions":[1.8573138E-1,7.0059076E-2,6.238215E-1,8.318926E-3,8.5714287E-1,3.624215E-1,8.8414204E-1,3.5714287E-1,1.1234452E-1,7.1428575E-2,1.2841414E-1,9.98263E-1,4.907056E-1,6.6352534E-1,3.3276085E-2,4.71464E-1,-3.637314E-2,6.395777E-2,1.21512785E-5,1.0834882E-1,-2.6234476E-2,-3.1976998E-2,5.000188E-1,1.9367746E-1,9.8067224E-1,3.9381087E-1,4.1889347E-2,8.766872E-3,2.1289347E-2,-4.31037E-2,-9.713121E-3,8.402643E-2,7.8571427E-1,3.4365814E-5,1.701179E-5,9.985112E-1,-8.505307E-3,-1.2565706E-2,-2.501053E-2,9.960298E-1,-1.4705857E-2,1.5548688E-1,5.0040424E-1,3.8316798E-1,9.6277916E-1,5.340041E-1,1.3901947E-1,-3.2089286E-2,-2.1771938E-2,-5.9423847E-3,-2.4457082E-2,-1.1003699E-2,-3.737147E-2,-4.937194E-3,-1.9417068E-2,-2.5208362E-3,-1.087762E-2,-3.0111399E-2,-1.715682E-2,-3.0467605E-2,-1.3078515E-2,-1.1870622E-2,-4.7552306E-3,-3.199558E-3,-5.5731456E-3,-1.1458794E-3,2.1652759E-3,5.1893685E-3,7.145478E-3,2.733218E-3,-4.6419204E-4],"split_indices":[14,12,12,12,1,12,12,1,14,0,14,3,12,12,0,2,0,12,10,12,0,0,9,12,7,14,6,0,0,0,0,14,1,9,10,3,0,0,0,3,0,13,11,12,2,13,6,0,0,0,0,0,0,0,0,0,0,0,0,0,0,0,0,0,0,0,0,0,0,0,0],"split_type":[0,0,0,0,0,0,0,0,0,0,0,0,0,0,0,0,0,0,0,0,0,0,0,0,0,0,0,0,0,0,0,0,0,0,0,0,0,0,0,0,0,0,0,0,0,0,0,0,0,0,0,0,0,0,0,0,0,0,0,0,0,0,0,0,0,0,0,0,0,0,0],"sum_hessian":[2E3,1.212E3,7.88E2,1.017E3,1.95E2,7.25E2,6.3E1,4.87E2,5.3E2,1.24E2,7.1E1,5.8E2,1.45E2,1.5E1,4.8E1,1.1E1,4.76E2,3.21E2,2.09E2,1.05E2,1.9E1,3.1E1,4E1,5.5E1,5.25E2,6.5E1,8E1,2E0,1.3E1,4E0,7E0,3.06E2,1.5E1,1.99E2,1E1,5.9E1,4.6E1,1E1,3E1,4.4E1,1.1E1,2.8E1,4.97E2,4.5E1,2E1,7.2E1,8E0,2.68E2,3.8E1,8E0,7E0,4E0,1.95E2,1E0,9E0,1E0,5.8E1,3.5E1,9E0,2.3E1,5E0,2.93E2,2.04E2,4.2E1,3E0,1.5E1,5E0,4E1,3.2E1,7E0,1E0],"tree_param":{"num_deleted":"0","num_feature":"15","num_nodes":"71","size_leaf_vector":"0"}},{"base_weights":[-5.02477E-2,-7.429226E-2,-1.3218175E-2,-7.906911E-2,-3.2821927E-2,-2.073534E-2,7.2261214E-2,-8.35359E-2,-7.293732E-2,-2.18541E-2,-5.6130596E-2,-2.7144078E-2,4.9099443E-3,4.5532577E-2,7.7553734E-2,-8.725677E-2,-7.694932E-2,-4.5909017E-2,-7.600321E-2,-2.9679807E-2,-6.0841978E-2,-2.3306211E-2,-6.57388E-2,-5.676858E-3,1.39604835E-2,-9.364081E-2,-8.21077E-2,-2.3878094E-2,-7.848747E-2,-7.96298E-2,-3.3164825E-2,-8.042379E-2,-5.37043E-2,-3.2951467E-2,-3.3890903E-3,-1.21383E-2,-6.1984647E-2,-1.7764837E-2,-5.2107945E-2,-7.613079E-2,-3.2094028E-2,-7.3103737E-3,3.452301E-3,1.2032841E-2,1.7041802E-2,-8.6441234E-2,-4.868579E-2,-1.564355E-2,-4.075995E-2,-8.4727265E-2,-6.793039E-2,-9.4702564E-2,2.1802485E-3,-2.2709848E-2,-6.953227E-2,-8.4011644E-2,-6.744401E-2,-2.1698108E-2,-6.174631E-2,-6.574239E-2,-3.4744035E-2,-1.6098369E-2,-8.220253E-2,-7.055497E-2,-4.021141E-2,-4.969914E-2,-9.057978E-2,-8.317469E-3,-3.5511127E-3,-4.1534007E-3,5.603946E-3,4.2930394E-3,1.2419093E-2],"categories":[],"categories_nodes":[],"categories_segments":[],"categories_sizes":[],"default_left":[1,1,1,1,1,1,1,1,1,0,1,1,1,0,0,1,1,1,1,1,1,1,1,1,1,0,1,1,1,1,1,1,1,0,0,0,1,1,1,1,0,1,1,1,0,0,0,0,0,0,0,0,0,0,0,0,0,0,0,0,0,0,0,0,0,0,0,0,0,0,0,0,0],"id":5,"left_children":[1,3,5,7,9,11,13,15,17,-1,19,21,23,-1,-1,25,27,29,31,33,35,37,39,41,43,-1,45,47,49,51,53,55,57,-1,-1,-1,59,61,63,65,-1,67,69,71,-1,-1,-1,-1,-1,-1,-1,-1,-1,-1,-1,-1,-1,-1,-1,-1,-1,-1,-1,-1,-1,-1,-1,-1,-1,-1,-1,-1,-1],"loss_changes":[1.7806253E0,2.376976E-1,5.084804E-1,2.3679256E-2,3.1240284E-2,1.19454205E-1,5.5223107E-3,8.529663E-3,3.5126448E-2,0E0,3.1790137E-3,8.452639E-2,1.4068428E-2,0E0,0E0,5.131483E-3,1.7145872E-2,1.8846296E-2,3.6786318E-2,5.764393E-4,1.084134E-3,8.366296E-2,1.5737757E-2,1.0392959E-3,2.641743E-4,0E0,2.8234482E-2,4.744851E-4,9.132028E-3,1.623682E-2,1.2869328E-2,1.0447025E-2,1.7192602E-2,0E0,0E0,0E0,9.914637E-4,4.656963E-2,1.5816614E-2,1.039277E-2,0E0,1.9004778E-4,2.0328788E-4,1.0213908E-4,0E0,0E0,0E0,0E0,0E0,0E0,0E0,0E0,0E0,0E0,0E0,0E0,0E0,0E0,0E0,0E0,0E0,0E0,0E0,0E0,0E0,0E0,0E0,0E0,0E0,0E0,0E0,0E0,0E0],"parents":[2147483647,0,0,1,1,2,2,3,3,4,4,5,5,6,6,7,7,8,8,10,10,11,11,12,12,15,15,16,16,17,17,18,18,19,19,20,20,21,21,22,22,23,23,24,24,26,26,27,27,28,28,29,29,30,30,31,31,32,32,36,36,37,37,38,38,39,39,41,41,42,42,43,43],"right_children":[2,4,6,8,10,12,14,16,18,-1,20,22,24,-1,-1,26,28,30,32,34,36,38,40,42,44,-1,46,48,50,52,54,56,58,-1,-1,-1,60,62,64,66,-1,68,70,72,-1,-1,-1,-1,-1,-1,-1,-1,-1,-1,-1,-1,-1,-1,-1,-1,-1,-1,-1,-1,-1,-1,-1,-1,-1,-1,-1,-1,-1],"split_conditions":[1.8573138E-1,1.0060808E-1,6.238215E-1,1.5810411E-2,8.5714287E-1,3.624215E-1,8.573677E-1,4.71464E-1,6.428572E-1,-6.5562306E-3,5.000188E-1,2.9819334E-1,5.095667E-1,1.3659773E-2,2.3266122E-2,8.5714287E-1,3.5714287E-1,2.5556523E-2,3.1820198E-7,9.600496E-1,1.0187538E-1,9.4317615E-1,2.1724296E-1,9.5210916E-1,6.055428E-1,-2.8092245E-2,3.666043E-2,9.5384616E-1,2.7017433E-2,4.8064515E-1,7.1428575E-2,1.21512785E-5,5.0040424E-1,-9.885441E-3,-1.0167272E-3,-3.6414901E-3,1.5292531E-1,5.6705967E-6,8.779757E-2,4.0115607E-1,-9.628208E-3,3.9168844E-1,4.228778E-1,5.3342485E-1,5.112541E-3,-2.5932372E-2,-1.4605737E-2,-4.6930653E-3,-1.2227986E-2,-2.5418181E-2,-2.0379119E-2,-2.841077E-2,6.540746E-4,-6.812955E-3,-2.0859681E-2,-2.5203494E-2,-2.0233205E-2,-6.5094326E-3,-1.8523894E-2,-1.9722717E-2,-1.0423211E-2,-4.829511E-3,-2.466076E-2,-2.1166492E-2,-1.2063423E-2,-1.4909742E-2,-2.7173935E-2,-2.4952407E-3,-1.0653338E-3,-1.2460202E-3,1.6811838E-3,1.2879119E-3,3.7257283E-3],"split_indices":[14,12,12,12,1,12,12,2,1,0,9,6,12,0,0,1,1,13,8,2,12,2,12,2,12,0,14,2,14,2,0,10,11,0,0,0,12,10,12,6,0,14,14,12,0,0,0,0,0,0,0,0,0,0,0,0,0,0,0,0,0,0,0,0,0,0,0,0,0,0,0,0,0],"split_type":[0,0,0,0,0,0,0,0,0,0,0,0,0,0,0,0,0,0,0,0,0,0,0,0,0,0,0,0,0,0,0,0,0,0,0,0,0,0,0,0,0,0,0,0,0,0,0,0,0,0,0,0,0,0,0,0,0,0,0,0,0,0,0,0,0,0,0,0,0,0,0,0,0],"sum_hessian":[2E3,1.212E3,7.88E2,1.086E3,1.26E2,7.25E2,6.3E1,6.21E2,4.65E2,8.7E1,3.9E1,5.8E2,1.45E2,1.2E1,5.1E1,3.89E2,2.32E2,4.9E1,4.16E2,7E0,3.2E1,5.29E2,5.1E1,6.7E1,7.8E1,1.66E2,2.23E2,7E0,2.25E2,1.2E1,3.7E1,3.45E2,7.1E1,6E0,1E0,1E0,3.1E1,4.45E2,8.4E1,3.8E1,1.3E1,5.7E1,1E1,5.1E1,2.7E1,1.96E2,2.7E1,6E0,1E0,1.37E2,8.8E1,1E1,2E0,3E1,7E0,2.66E2,7.9E1,1.5E1,5.6E1,2.6E1,5E0,4.35E2,1E1,3.1E1,5.3E1,1.5E1,2.3E1,4.4E1,1.3E1,2E0,8E0,3E0,4.8E1],"tree_param":{"num_deleted":"0","num_feature":"15","num_nodes":"73","size_leaf_vector":"0"}},{"base_weights":[-3.5362795E-2,-5.1016595E-2,-6.6399686E-3,-5.6281127E-2,-2.9324863E-2,-1.2373735E-2,5.1159807E-2,-5.9068844E-2,-5.0485995E-2,-6.809015E-2,-2.500254E-2,-1.6988944E-2,3.4849173E-3,1.9711712E-2,5.3490803E-2,-6.061943E-2,-4.059526E-2,-2.458031E-2,-5.6641035E-2,-2.0715127E-2,-5.8010396E-2,-7.445736E-4,-2.639393E-2,-4.2418167E-3,9.737751E-3,-6.652987E-2,-5.354966E-2,-2.7269818E-2,-5.5434447E-2,-3.1731185E-2,1.5358879E-2,-5.1081106E-2,-6.4668186E-2,-1.8857352E-2,-7.949808E-2,-4.339314E-2,-8.079932E-2,-2.8112473E-2,1.5004273E-3,-4.466952E-2,-2.3429533E-2,-5.2420534E-3,1.8837154E-3,1.0380467E-2,3.442635E-3,-6.404002E-2,-8.0263674E-2,-6.049707E-2,-2.731147E-2,-3.0582525E-2,-1.1069796E-2,-4.3105848E-2,-2.1807777E-2,-1.8881528E-3,3.6432948E-2,-5.7282697E-2,-3.4254536E-2,-5.8955006E-2,-1.6889807E-2,-3.0363202E-2,-9.647472E-2,-5.3649027E-2,-2.7176246E-2,-3.046098E-2,-9.347618E-3,1.5086093E-2,-6.56423E-3,-5.5095572E-2,-2.992478E-2,-5.6119557E-2,-2.1453457E-2,-4.7489116E-3,-1.2535632E-2,4.6105385E-3,-6.015718E-3,8.709592E-3,1.2141843E-2,4.068598E-3,-7.825345E-4],"categories":[],"categories_nodes":[],"categories_segments":[],"categories_sizes":[],"default_left":[1,1,1,1,1,1,1,1,1,0,1,1,1,0,0,1,1,1,1,1,1,1,1,1,1,1,1,1,0,1,1,1,0,1,1,1,0,1,1,1,1,1,1,1,1,0,0,0,0,0,0,0,0,0,0,0,0,0,0,0,0,0,0,0,0,0,0,0,0,0,0,0,0,0,0,0,0,0,0],"id":6,"left_children":[1,3,5,7,9,11,13,15,17,-1,19,21,23,-1,-1,25,27,29,31,33,35,37,39,41,43,45,47,49,-1,51,53,55,-1,57,59,61,-1,63,65,67,69,71,73,75,77,-1,-1,-1,-1,-1,-1,-1,-1,-1,-1,-1,-1,-1,-1,-1,-1,-1,-1,-1,-1,-1,-1,-1,-1,-1,-1,-1,-1,-1,-1,-1,-1,-1,-1],"loss_changes":[8.9935374E-1,1.4623427E-1,2.349402E-1,1.383543E-2,4.1024387E-2,4.7194213E-2,3.6371648E-3,1.7504692E-2,5.3618133E-2,0E0,3.1489044E-2,7.621661E-2,7.095147E-3,0E0,0E0,2.3221731E-2,9.759426E-3,1.9908167E-2,9.103894E-3,2.0997226E-2,5.154766E-3,1.1347317E-2,1.6073033E-2,4.1425542E-4,2.9198732E-4,6.657243E-3,5.2487135E-2,1.3787672E-3,0E0,5.6067295E-3,4.066908E-3,1.567322E-2,0E0,1.4861949E-2,2.0755865E-3,1.5357584E-3,0E0,3.3223443E-4,1.8834429E-2,4.961647E-3,1.6495898E-2,1.4548504E-4,2.4313926E-4,1.090914E-4,2.6987014E-5,0E0,0E0,0E0,0E0,0E0,0E0,0E0,0E0,0E0,0E0,0E0,0E0,0E0,0E0,0E0,0E0,0E0,0E0,0E0,0E0,0E0,0E0,0E0,0E0,0E0,0E0,0E0,0E0,0E0,0E0,0E0,0E0,0E0,0E0],"parents":[2147483647,0,0,1,1,2,2,3,3,4,4,5,5,6,6,7,7,8,8,10,10,11,11,12,12,15,15,16,16,17,17,18,18,19,19,20,20,21,21,22,22,23,23,24,24,25,25,26,26,27,27,29,29,30,30,31,31,33,33,34,34,35,35,37,37,38,38,39,39,40,40,41,41,42,42,43,43,44,44],"right_children":[2,4,6,8,10,12,14,16,18,-1,20,22,24,-1,-1,26,28,30,32,34,36,38,40,42,44,46,48,50,-1,52,54,56,-1,58,60,62,-1,64,66,68,70,72,74,76,78,-1,-1,-1,-1,-1,-1,-1,-1,-1,-1,-1,-1,-1,-1,-1,-1,-1,-1,-1,-1,-1,-1,-1,-1,-1,-1,-1,-1,-1,-1,-1,-1,-1,-1],"split_conditions":[9.5390365E-2,1.276471E-1,6.238215E-1,4.71464E-1,9.9230766E-1,3.624215E-1,7.149727E-1,4.2967007E-2,8.5714287E-1,-2.0427044E-2,3.2646447E-1,5.000188E-1,4.907056E-1,5.913514E-3,1.6047241E-2,8.5714287E-1,8.5714287E-1,1.0779366E-1,9.4317615E-1,9.836228E-1,1.9410506E-1,1.8616758E-1,9.9875927E-1,9.5210916E-1,4.1889347E-2,4.255136E-2,4.3628965E-2,2.1428573E-1,-1.6630335E-2,9.9950373E-1,9.937965E-1,5.0164893E-2,-1.9400457E-2,8.63808E-1,1.6747221E-1,4.5578822E-2,-2.4239797E-2,9.600496E-1,4.71464E-1,1.2237287E-1,8.9211595E-1,9.459057E-1,9.7617865E-1,5.340041E-1,1.3901947E-1,-1.9212008E-2,-2.4079103E-2,-1.8149123E-2,-8.193442E-3,-9.174758E-3,-3.320939E-3,-1.2931755E-2,-6.5423334E-3,-5.664459E-4,1.0929884E-2,-1.718481E-2,-1.0276361E-2,-1.7686503E-2,-5.0669424E-3,-9.108961E-3,-2.8942417E-2,-1.6094709E-2,-8.152874E-3,-9.1382945E-3,-2.8042854E-3,4.525828E-3,-1.9692692E-3,-1.6528672E-2,-8.977435E-3,-1.6835868E-2,-6.4360374E-3,-1.4246735E-3,-3.7606896E-3,1.3831616E-3,-1.8047155E-3,2.6128776E-3,3.6425532E-3,1.2205795E-3,-2.3476036E-4],"split_indices":[12,14,12,2,3,12,12,13,1,0,6,9,12,0,0,1,1,14,2,2,14,14,3,2,6,12,14,0,0,3,3,14,0,7,14,12,0,2,2,13,7,2,2,13,6,0,0,0,0,0,0,0,0,0,0,0,0,0,0,0,0,0,0,0,0,0,0,0,0,0,0,0,0,0,0,0,0,0,0],"split_type":[0,0,0,0,0,0,0,0,0,0,0,0,0,0,0,0,0,0,0,0,0,0,0,0,0,0,0,0,0,0,0,0,0,0,0,0,0,0,0,0,0,0,0,0,0,0,0,0,0,0,0,0,0,0,0,0,0,0,0,0,0,0,0,0,0,0,0,0,0,0,0,0,0,0,0,0,0,0,0],"sum_hessian":[2E3,1.294E3,7.06E2,1.04E3,2.54E2,6.43E2,6.3E1,6.96E2,3.44E2,2.4E1,2.3E2,4.98E2,1.45E2,5E0,5.8E1,6.4E2,5.6E1,6.7E1,2.77E2,2.05E2,2.5E1,1.83E2,3.15E2,6.5E1,8E1,3.44E2,2.96E2,3.1E1,2.5E1,5.7E1,1E1,1.68E2,1.09E2,2E2,5E0,1.7E1,8E0,1.3E1,1.7E2,4.2E1,2.73E2,5.6E1,9E0,7.2E1,8E0,2.96E2,4.8E1,2.33E2,6.3E1,2.5E1,6E0,2.5E1,3.2E1,6E0,4E0,1.21E2,4.7E1,8E0,1.92E2,2E0,3E0,9E0,8E0,1.1E1,2E0,6.3E1,1.07E2,2.3E1,1.9E1,1.4E1,2.59E2,5.4E1,2E0,7E0,2E0,4E1,3.2E1,7E0,1E0],"tree_param":{"num_deleted":"0","num_feature":"15","num_nodes":"79","size_leaf_vector":"0"}},{"base_weights":[-2.4913386E-2,-3.596061E-2,-4.731469E-3,-3.9351072E-2,-1.9950999E-2,-8.774817E-3,3.6155004E-2,-4.40455E-2,-3.7385467E-2,-5.063678E-2,-1.6593326E-2,-1.131689E-2,5.9070257E-3,2.3293624E-2,4.031138E-2,-4.444054E-2,-2.3627039E-2,-3.38029E-2,-4.2802174E-2,-1.3386458E-3,-5.2920565E-2,-1.3224907E-2,-5.1227015E-2,-6.025572E-4,-1.6687011E-2,1.4940099E-3,7.439862E-3,6.3779056E-3,2.3913495E-2,-1.6218126E-2,-4.457463E-2,-3.640789E-2,-1.3298771E-2,-4.6580933E-2,-3.2099828E-2,-2.0360652E-2,-4.443001E-2,-6.49579E-2,-3.318371E-2,-3.980366E-3,-2.1331677E-2,-6.1691668E-2,-2.5969466E-2,-2.0531768E-2,1.0230911E-3,-2.1557355E-2,-9.656212E-3,-1.520166E-3,4.1861725E-3,6.538119E-3,8.749104E-3,-2.6644815E-2,-5.0133962E-2,-3.373709E-2,-1.5659804E-2,1.1693348E-2,-4.8046768E-2,-4.6296287E-2,-1.9474622E-2,-4.1424256E-2,-1.6658306E-2,-1.5945393E-3,-3.7116185E-2,-6.7711085E-2,-2.0190772E-2,-2.7922802E-2,-7.1247295E-3,-2.2495126E-2,-5.8344104E-3,1.0372244E-2,-4.6131867E-3,-8.484611E-3,-3.0651761E-2,-5.137066E-3,-1.6313674E-2,-4.7272565E-3,4.304581E-4,-5.8564395E-3,5.4091765E-3,6.620198E-3,1.422286E-3],"categories":[],"categories_nodes":[],"categories_segments":[],"categories_sizes":[],"default_left":[1,1,1,1,1,1,1,1,1,1,1,1,1,1,0,1,1,1,1,0,1,1,1,1,1,1,1,0,0,0,0,0,0,1,1,1,1,0,1,1,1,0,1,1,1,1,1,1,1,1,0,0,0,0,0,0,0,0,0,0,0,0,0,0,0,0,0,0,0,0,0,0,0,0,0,0,0,0,0,0,0],"id":7,"left_children":[1,3,5,7,9,11,13,15,17,19,21,23,25,27,-1,29,31,33,35,-1,37,39,41,43,45,47,49,-1,-1,-1,-1,-1,-1,51,53,55,57,-1,59,61,63,-1,65,67,69,71,73,75,77,79,-1,-1,-1,-1,-1,-1,-1,-1,-1,-1,-1,-1,-1,-1,-1,-1,-1,-1,-1,-1,-1,-1,-1,-1,-1,-1,-1,-1,-1,-1,-1],"loss_changes":[4.4596124E-1,6.939888E-2,1.1752787E-1,8.189678E-3,2.2651248E-2,2.4177063E-2,2.4822354E-3,1.4424324E-3,1.3262749E-2,2.406057E-3,2.3471307E-2,3.1692974E-2,6.382698E-4,3.622286E-5,0E0,4.1997433E-4,5.718521E-4,8.536994E-3,9.981632E-3,0E0,2.8336197E-3,1.4154334E-2,3.1555071E-3,6.0146153E-3,1.2358807E-2,2.1734461E-4,2.6619993E-5,0E0,0E0,0E0,0E0,0E0,0E0,2.3475438E-3,1.0507524E-2,2.0085745E-2,1.1999309E-2,0E0,6.717257E-4,7.0558856E-3,3.977224E-3,0E0,5.872827E-5,2.727406E-4,9.111289E-3,2.5419928E-2,4.4892756E-3,8.3360654E-5,2.0362868E-4,9.899726E-6,0E0,0E0,0E0,0E0,0E0,0E0,0E0,0E0,0E0,0E0,0E0,0E0,0E0,0E0,0E0,0E0,0E0,0E0,0E0,0E0,0E0,0E0,0E0,0E0,0E0,0E0,0E0,0E0,0E0,0E0,0E0],"parents":[2147483647,0,0,1,1,2,2,3,3,4,4,5,5,6,6,7,7,8,8,9,9,10,10,11,11,12,12,13,13,15,15,16,16,17,17,18,18,20,20,21,21,22,22,23,23,24,24,25,25,26,26,33,33,34,34,35,35,36,36,38,38,39,39,40,40,42,42,43,43,44,44,45,45,46,46,47,47,48,48,49,49],"right_children":[2,4,6,8,10,12,14,16,18,20,22,24,26,28,-1,30,32,34,36,-1,38,40,42,44,46,48,50,-1,-1,-1,-1,-1,-1,52,54,56,58,-1,60,62,64,-1,66,68,70,72,74,76,78,80,-1,-1,-1,-1,-1,-1,-1,-1,-1,-1,-1,-1,-1,-1,-1,-1,-1,-1,-1,-1,-1,-1,-1,-1,-1,-1,-1,-1,-1,-1,-1],"split_conditions":[9.465855E-2,1.6972327E-1,6.238215E-1,1.7268043E-2,2.8995687E-2,4.340756E-1,8.956323E-1,3.5714287E-1,1.1234452E-1,5.1926466E-4,1.9410506E-1,5.000188E-1,5.527596E-1,9.9727046E-1,1.2093415E-2,4.77303E-6,9.9081886E-1,9.7965264E-1,9.985112E-1,-4.0159377E-4,2.3290597E-2,4.71464E-1,2.6652998E-1,1.8616758E-1,2.2459617E-1,9.486352E-1,6.1319095E-1,1.9133717E-3,7.174049E-3,-4.8654377E-3,-1.337239E-2,-1.0922368E-2,-3.989632E-3,8.5714287E-1,8.98384E-2,8.5714287E-1,1.1721324E-1,-1.9487372E-2,1.8178949E-1,3.6198553E-1,6.941347E-1,-1.8507501E-2,8.753787E-2,1.3652648E-1,4.71464E-1,8.5714287E-1,4.71464E-1,4.7057295E-1,3.354243E-1,5.9967425E-2,2.6247313E-3,-7.993445E-3,-1.5040189E-2,-1.0121128E-2,-4.6979412E-3,3.5080046E-3,-1.4414031E-2,-1.3888887E-2,-5.8423867E-3,-1.2427277E-2,-4.997492E-3,-4.783618E-4,-1.1134855E-2,-2.0313326E-2,-6.0572317E-3,-8.3768405E-3,-2.1374188E-3,-6.748538E-3,-1.7503232E-3,3.1116733E-3,-1.383956E-3,-2.5453835E-3,-9.195529E-3,-1.5411199E-3,-4.8941025E-3,-1.418177E-3,1.2913744E-4,-1.7569319E-3,1.622753E-3,1.9860596E-3,4.2668582E-4],"split_indices":[12,14,12,14,12,14,12,0,14,11,14,9,12,3,0,9,3,3,3,0,12,2,14,14,12,2,12,0,0,0,0,0,0,1,14,1,14,0,6,6,7,0,12,12,2,1,2,12,12,6,0,0,0,0,0,0,0,0,0,0,0,0,0,0,0,0,0,0,0,0,0,0,0,0,0,0,0,0,0,0,0],"split_type":[0,0,0,0,0,0,0,0,0,0,0,0,0,0,0,0,0,0,0,0,0,0,0,0,0,0,0,0,0,0,0,0,0,0,0,0,0,0,0,0,0,0,0,0,0,0,0,0,0,0,0,0,0,0,0,0,0,0,0,0,0,0,0,0,0,0,0,0,0,0,0,0,0,0,0,0,0,0,0,0,0],"sum_hessian":[2E3,1.292E3,7.08E2,1.065E3,2.27E2,6.45E2,6.3E1,3.08E2,7.57E2,2.1E1,2.06E2,5.5E2,9.5E1,1.7E1,4.6E1,3.01E2,7E0,4.6E2,2.97E2,1E0,2E1,1.89E2,1.7E1,1.84E2,3.66E2,2.5E1,7E1,1E0,1.6E1,2E0,2.99E2,2E0,5E0,5.1E1,4.09E2,2.1E1,2.76E2,1.1E1,9E0,8.9E1,1E2,1.1E1,6E0,1.3E1,1.71E2,2.15E2,1.51E2,1.2E1,1.3E1,4.5E1,2.5E1,9E0,4.2E1,3.71E2,3.8E1,1E1,1.1E1,2.56E2,2E1,5E0,4E0,8.4E1,5E0,1E0,9.9E1,5E0,1E0,1.1E1,2E0,6.4E1,1.07E2,8.9E1,1.26E2,9.1E1,6E1,4E0,8E0,1E0,1.2E1,4.4E1,1E0],"tree_param":{"num_deleted":"0","num_feature":"15","num_nodes":"81","size_leaf_vector":"0"}},{"base_weights":[-1.7542373E-2,-2.5170844E-2,-3.0117983E-3,-2.7555043E-2,-1.4069477E-2,-5.9315227E-3,2.5639439E-2,-3.2118224E-2,-2.6281014E-2,-3.7141826E-2,-1.1620363E-2,-3.130928E-2,-5.13003E-3,1.6381426E-2,2.8384164E-2,-3.246467E-2,-1.8402927E-2,-2.4353731E-2,-2.9708914E-2,-3.1874985E-2,-7.387272E-2,-9.187017E-3,-3.7471235E-2,-3.992939E-2,-5.9774765E-3,-4.245967E-3,-2.8525451E-2,8.395421E-3,1.8192856E-2,-2.9126314E-2,-9.974077E-3,-7.415886E-3,-2.5318509E-2,-3.126485E-2,-1.5652323E-2,-1.1378452E-3,-3.335495E-2,-2.985434E-3,-1.4424346E-2,-4.3047983E-2,-1.4362085E-2,-7.485026E-3,7.801354E-4,-3.1588918E-3,-2.3035184E-2,-3.6146145E-3,-3.0835804E-2,-1.6655182E-2,-7.039528E-4,-2.7134784E-2,-1.9250378E-2,-3.2519553E-2,-9.313942E-3,7.880962E-3,-3.216883E-2,-1.2168802E-3,-2.7837133E-2,-5.7554424E-2,-1.3465446E-2,-9.3853995E-3,5.8233738E-5,-1.9568335E-2,-1.7826492E-3,-2.884585E-2,-1.2323757E-2,-3.6148783E-2,-1.8347736E-2],"categories":[],"categories_nodes":[],"categories_segments":[],"categories_sizes":[],"default_left":[1,1,1,1,1,1,1,1,1,1,1,1,1,1,0,0,1,1,1,1,0,1,1,0,1,1,1,0,0,0,0,1,1,1,1,0,0,1,1,0,0,1,0,1,1,0,1,0,0,0,0,0,0,0,0,0,0,0,0,0,0,0,0,0,0,0,0],"id":8,"left_children":[1,3,5,7,9,11,13,15,17,19,21,23,25,27,-1,-1,29,31,33,35,-1,37,39,-1,41,43,45,-1,-1,-1,-1,47,49,51,53,-1,-1,55,57,-1,-1,59,-1,61,63,-1,65,-1,-1,-1,-1,-1,-1,-1,-1,-1,-1,-1,-1,-1,-1,-1,-1,-1,-1,-1,-1],"loss_changes":[2.2172719E-1,3.4338117E-2,5.7873152E-2,5.428791E-3,1.2790985E-2,1.2592612E-2,1.1613108E-3,5.001724E-4,4.885435E-3,1.901336E-3,1.3054332E-2,3.9102193E-3,1.247485E-2,9.318674E-5,0E0,0E0,4.3257815E-4,8.783579E-3,6.0938597E-3,9.173341E-4,0E0,6.322965E-3,1.7014723E-3,0E0,6.696394E-5,1.1937304E-2,1.1547022E-3,0E0,0E0,0E0,0E0,1.9106951E-3,5.1977634E-3,7.1333945E-3,1.26915295E-2,0E0,0E0,3.965718E-3,3.6088917E-3,0E0,0E0,7.222159E-5,0E0,1.2544058E-2,1.636209E-3,0E0,6.637275E-4,0E0,0E0,0E0,0E0,0E0,0E0,0E0,0E0,0E0,0E0,0E0,0E0,0E0,0E0,0E0,0E0,0E0,0E0,0E0,0E0],"parents":[2147483647,0,0,1,1,2,2,3,3,4,4,5,5,6,6,7,7,8,8,9,9,10,10,11,11,12,12,13,13,16,16,17,17,18,18,19,19,21,21,22,22,24,24,25,25,26,26,31,31,32,32,33,33,34,34,37,37,38,38,41,41,43,43,44,44,46,46],"right_children":[2,4,6,8,10,12,14,16,18,20,22,24,26,28,-1,-1,30,32,34,36,-1,38,40,-1,42,44,46,-1,-1,-1,-1,48,50,52,54,-1,-1,56,58,-1,-1,60,-1,62,64,-1,66,-1,-1,-1,-1,-1,-1,-1,-1,-1,-1,-1,-1,-1,-1,-1,-1,-1,-1,-1,-1],"split_conditions":[1.00697234E-1,1.6972327E-1,6.238215E-1,2.9090415E-3,2.8995687E-2,9.312497E-1,8.90716E-1,3.5714287E-1,1.1234452E-1,9.786601E-1,1.9410506E-1,3.2134515E-1,8.100852E-7,6.9759583E-1,8.51525E-3,-9.739401E-3,9.9081886E-1,3.4462393E-4,4.71464E-1,5.1926466E-4,-2.2161817E-2,4.71464E-1,3.0402908E-1,-1.1978817E-2,4.7220844E-1,3.5801804E-1,1.0944371E-1,2.5186264E-3,5.4578567E-3,-8.737895E-3,-2.9922232E-3,4.586789E-3,3.1807654E-2,8.5714287E-1,8.5714287E-1,-3.413536E-4,-1.00064855E-2,3.6198553E-1,6.941347E-1,-1.2914396E-2,-4.3086256E-3,8.5346913E-1,2.3404062E-4,9.9578166E-1,2.4305636E-1,-1.0843844E-3,2.9184145E-1,-4.996555E-3,-2.1118585E-4,-8.140435E-3,-5.7751136E-3,-9.755867E-3,-2.7941826E-3,2.3642888E-3,-9.6506495E-3,-3.6506407E-4,-8.351141E-3,-1.7266328E-2,-4.039634E-3,-2.81562E-3,1.7470122E-5,-5.870501E-3,-5.3479476E-4,-8.653755E-3,-3.697127E-3,-1.0844635E-2,-5.5043213E-3],"split_indices":[12,14,12,12,12,7,12,0,14,2,14,12,10,12,0,0,3,13,2,11,0,2,14,0,2,6,12,0,0,0,0,12,13,1,1,0,0,6,7,0,0,7,0,3,12,0,14,0,0,0,0,0,0,0,0,0,0,0,0,0,0,0,0,0,0,0,0],"split_type":[0,0,0,0,0,0,0,0,0,0,0,0,0,0,0,0,0,0,0,0,0,0,0,0,0,0,0,0,0,0,0,0,0,0,0,0,0,0,0,0,0,0,0,0,0,0,0,0,0,0,0,0,0,0,0,0,0,0,0,0,0,0,0,0,0,0,0],"sum_hessian":[2E3,1.311E3,6.89E2,1.078E3,2.33E2,6.26E2,6.3E1,2.3E2,8.48E2,2.1E1,2.12E2,1.8E1,6.08E2,1.6E1,4.7E1,2.23E2,7E0,5.48E2,3E2,2E1,1E0,1.95E2,1.7E1,1.3E1,5E0,5.87E2,2.1E1,4E0,1.2E1,2E0,5E0,3E1,5.18E2,2.69E2,3.1E1,1E0,1.9E1,9E1,1.05E2,1.3E1,4E0,4E0,1E0,5.56E2,3.1E1,2E0,1.9E1,1.2E1,1.8E1,3.96E2,1.22E2,2.54E2,1.5E1,1.3E1,1.8E1,8.5E1,5E0,1E0,1.04E2,3E0,1E0,4.2E1,5.14E2,1.9E1,1.2E1,1.2E1,7E0],"tree_param":{"num_deleted":"0","num_feature":"15","num_nodes":"67","size_leaf_vector":"0"}},{"base_weights":[-1.2366828E-2,-1.7726436E-2,-2.1578805E-3,-1.9344533E-2,-1.0189457E-2,-5.6390106E-3,1.1316053E-2,1.1287059E-2,-1.9440427E-2,-9.294824E-3,-5.9307184E-2,7.254496E-4,-8.5692685E-3,5.765492E-3,1.9026747E-2,-1.40489675E-2,-2.0058481E-2,-7.859857E-3,-3.2753497E-2,6.5577514E-3,-3.0778928E-3,-1.0619011E-2,-4.7197164E-4,6.195786E-3,2.9388254E-3,1.3520743E-2,2.0288862E-2,-2.2448193E-2,3.3402247E-3,-1.7616462E-2,-2.3031889E-2,-4.2621113E-2,-6.8485145E-3,-3.401983E-2,-8.778729E-3,8.094374E-3,-1.0925852E-2,-2.421098E-3,-3.6020666E-2,-2.7593596E-2,-9.691606E-3,-2.4667296E-3,4.6270476E-3,5.100751E-3,7.2076595E-3,-8.9907646E-4,3.3335735E-3,2.1042248E-2,1.0513638E-2,-3.127364E-2,4.2680134E-3,1.909659E-2,-7.765952E-3,-2.287481E-2,-1.5319798E-2,-2.3564048E-2,-5.4979967E-3,-4.671325E-2,-1.1080209E-2,-1.9428873E-2,-4.8502404E-3,-1.9341052E-2,-3.8941592E-2,9.511694E-3,-2.627295E-3,-3.2604903E-2,-1.4642488E-2,-8.147784E-3,-1.7778572E-2,-7.925759E-3,-1.7761238E-3,6.298712E-3,-8.805096E-4,3.5283512E-3,5.9551E-4,4.8188368E-4,1.2471801E-2],"categories":[],"categories_nodes":[],"categories_segments":[],"categories_sizes":[],"default_left":[1,1,1,1,1,1,1,0,1,1,0,1,1,1,1,1,1,1,1,1,1,1,1,1,1,1,0,1,1,1,1,1,1,1,0,0,0,1,0,1,1,1,1,0,0,0,1,0,1,0,0,0,0,0,0,0,0,0,0,0,0,0,0,0,0,0,0,0,0,0,0,0,0,0,0,0,0],"id":9,"left_children":[1,3,5,7,9,11,13,-1,15,17,-1,19,21,23,25,27,29,31,33,35,37,39,41,43,45,47,-1,49,51,53,55,57,59,61,-1,-1,-1,63,-1,65,67,69,71,-1,-1,-1,73,-1,75,-1,-1,-1,-1,-1,-1,-1,-1,-1,-1,-1,-1,-1,-1,-1,-1,-1,-1,-1,-1,-1,-1,-1,-1,-1,-1,-1,-1],"loss_changes":[1.094484E-1,1.5803486E-2,3.2427926E-2,3.3888519E-3,9.731263E-3,1.0244798E-2,5.967714E-3,0E0,3.303647E-3,7.5185765E-3,0E0,3.879894E-3,6.2355995E-3,8.396059E-5,1.3568252E-4,1.6725337E-2,6.5867305E-3,7.4071735E-3,9.603053E-5,1.9421715E-3,2.206274E-3,4.4552684E-3,7.9460454E-4,4.3014297E-5,2.2692191E-5,9.542075E-5,0E0,1.8288728E-2,6.7980364E-3,6.086424E-3,3.8920343E-3,2.5682524E-4,5.2855117E-3,1.1377409E-4,0E0,0E0,0E0,2.833432E-4,0E0,4.961118E-4,3.4258068E-3,1.9704498E-4,2.0809539E-4,0E0,0E0,0E0,4.298592E-6,0E0,2.2971572E-4,0E0,0E0,0E0,0E0,0E0,0E0,0E0,0E0,0E0,0E0,0E0,0E0,0E0,0E0,0E0,0E0,0E0,0E0,0E0,0E0,0E0,0E0,0E0,0E0,0E0,0E0,0E0,0E0],"parents":[2147483647,0,0,1,1,2,2,3,3,4,4,5,5,6,6,8,8,9,9,11,11,12,12,13,13,14,14,15,15,16,16,17,17,18,18,19,19,20,20,21,21,22,22,23,23,24,24,25,25,27,27,28,28,29,29,30,30,31,31,32,32,33,33,37,37,39,39,40,40,41,41,42,42,46,46,48,48],"right_children":[2,4,6,8,10,12,14,-1,16,18,-1,20,22,24,26,28,30,32,34,36,38,40,42,44,46,48,-1,50,52,54,56,58,60,62,-1,-1,-1,64,-1,66,68,70,72,-1,-1,-1,74,-1,76,-1,-1,-1,-1,-1,-1,-1,-1,-1,-1,-1,-1,-1,-1,-1,-1,-1,-1,-1,-1,-1,-1,-1,-1,-1,-1,-1,-1],"split_conditions":[1.00697234E-1,1.6972327E-1,5.095667E-1,3.818424E-6,9.868486E-1,5.000188E-1,7.149727E-1,3.3861178E-3,6.428572E-1,4.8585534E-1,-1.7792156E-2,4.71464E-1,3.345763E-1,9.639923E-3,9.006661E-1,2.5556523E-2,5.000188E-1,7.725185E-1,6.83844E-1,3.1820198E-7,9.8114145E-1,9.312497E-1,4.71464E-1,3.9579612E-1,2.0588439E-2,7.866857E-1,6.086659E-3,4.71464E-1,3.5354022E-2,3.322157E-3,2.1428573E-1,9.4342434E-1,9.98263E-1,5.779681E-1,-2.6336187E-3,2.4283123E-3,-3.2777556E-3,9.975186E-1,-1.08062E-2,1.1576379E-1,9.436725E-1,3.624215E-1,4.5831817E-1,1.5302253E-3,2.162298E-3,-2.6972295E-4,9.2609145E-2,6.312675E-3,8.1032765E-1,-9.382092E-3,1.280404E-3,5.7289773E-3,-2.3297856E-3,-6.8624434E-3,-4.5959395E-3,-7.0692147E-3,-1.649399E-3,-1.4013976E-2,-3.3240628E-3,-5.8286623E-3,-1.4550722E-3,-5.8023157E-3,-1.1682478E-2,2.8535083E-3,-7.8818854E-4,-9.781471E-3,-4.392747E-3,-2.4443353E-3,-5.3335717E-3,-2.3777278E-3,-5.328372E-4,1.8896137E-3,-2.6415288E-4,1.0585054E-3,1.78653E-4,1.4456511E-4,3.7415402E-3],"split_indices":[12,14,12,9,2,9,12,0,1,6,0,2,12,6,12,13,9,7,6,8,2,7,2,13,6,12,0,2,13,12,0,2,3,6,0,0,0,3,0,13,2,12,12,0,0,0,6,0,12,0,0,0,0,0,0,0,0,0,0,0,0,0,0,0,0,0,0,0,0,0,0,0,0,0,0,0,0],"split_type":[0,0,0,0,0,0,0,0,0,0,0,0,0,0,0,0,0,0,0,0,0,0,0,0,0,0,0,0,0,0,0,0,0,0,0,0,0,0,0,0,0,0,0,0,0,0,0,0,0,0,0,0,0,0,0,0,0,0,0,0,0,0,0,0,0,0,0,0,0,0,0,0,0,0,0,0,0],"sum_hessian":[2E3,1.311E3,6.89E2,1.078E3,2.33E2,5.48E2,1.41E2,3E0,1.075E3,2.3E2,3E0,1.73E2,3.75E2,8.3E1,5.8E1,1.13E2,9.62E2,2.18E2,1.2E1,6.8E1,1.05E2,2.99E2,7.6E1,7.1E1,1.2E1,1.3E1,4.5E1,7.6E1,3.7E1,5.32E2,4.3E2,5E0,2.13E2,1.1E1,1E0,6.3E1,5E0,1.04E2,1E0,1.4E1,2.85E2,5.5E1,2.1E1,3.7E1,3.4E1,1E0,1.1E1,2E0,1.1E1,5.7E1,1.9E1,1.5E1,2.2E1,1.59E2,3.73E2,4.17E2,1.3E1,4E0,1E0,2.8E1,1.85E2,4E0,7E0,1E0,1.03E2,9E0,5E0,2.41E2,4.4E1,5E0,5E1,1.6E1,5E0,1E1,1E0,2E0,9E0],"tree_param":{"num_deleted":"0","num_feature":"15","num_nodes":"77","size_leaf_vector":"0"}},{"base_weights":[-8.704711E-3,-1.272744E-2,-1.8765527E-3,-1.3725011E-2,-7.707636E-3,-4.4433735E-3,7.2841807E-3,-1.3549689E-2,-3.2478802E-2,-2.8373023E-2,-6.2075197E-3,1.8869333E-4,-6.820212E-3,3.6688668E-3,1.3594754E-2,-1.3963114E-2,-4.5091272E-3,-3.4255184E-2,-9.1338605E-3,-2.226391E-2,-5.3895734E-2,-4.530939E-3,-1.8767115E-2,6.772739E-4,-1.8805971E-2,-1.00350445E-2,-3.5531137E-3,3.9349766E-3,3.931423E-4,1.0326358E-2,1.4382114E-2,-1.3215226E-2,-2.380845E-2,3.114707E-3,-1.0786636E-2,-3.6457013E-2,-9.4212E-3,-2.3963302E-4,-2.4079299E-2,-3.1964774E-3,-2.1017147E-2,-3.1768404E-2,-1.52285015E-2,-9.0680765E-3,1.2003887E-3,-9.1471773E-4,-3.0428568E-2,-3.4452104E-3,-1.693875E-2,7.2537735E-4,-7.4151736E-3,-1.5375018E-3,4.1259867E-3,-2.0817262E-3,6.036788E-3,1.6833803E-2,8.030305E-3,-1.353748E-2,2.5495771E-2,-2.655428E-2,-1.2153169E-2,1.3007876E-3,6.8158507E-3,-1.1820362E-2,1.0787137E-3,-2.6209634E-2,-8.951751E-3,7.726761E-4,-7.079298E-3,-2.4201188E-2,-7.80276E-3,-4.191427E-2,-1.4415023E-2,-5.8800974E-3,-1.795263E-2,-1.0404499E-2,1.4798641E-3,4.6256483E-3,-1.0734472E-3,5.8069825E-5,-1.4301464E-3,-3.9616134E-3,1.4572352E-2,-1.8457491E-2,-7.709546E-3,-1.815315E-2,1.5657002E-3,-1.4893637E-2,-5.8322437E-3,2.8425902E-3,-3.9450624E-3,4.437937E-3,2.562311E-3,-2.5722235E-3,4.3062866E-4,1.5234351E-3,7.531747E-3,3.8552284E-4,9.385217E-3],"categories":[],"categories_nodes":[],"categories_segments":[],"categories_sizes":[],"default_left":[1,1,1,1,1,1,1,1,1,1,1,1,1,1,1,1,1,1,0,1,0,1,1,1,1,1,1,1,1,1,0,1,1,1,1,0,0,0,1,1,1,1,1,1,1,1,0,1,1,1,1,1,1,1,1,0,1,0,0,0,0,0,0,0,0,0,0,0,0,0,0,0,0,0,0,0,0,0,0,0,0,0,0,0,0,0,0,0,0,0,0,0,0,0,0,0,0,0,0],"id":10,"left_children":[1,3,5,7,9,11,13,15,17,19,21,23,25,27,29,31,33,35,-1,37,-1,39,41,43,45,47,49,51,53,55,-1,57,59,61,63,-1,-1,-1,65,67,69,71,73,75,77,79,-1,81,83,85,87,89,91,93,95,-1,97,-1,-1,-1,-1,-1,-1,-1,-1,-1,-1,-1,-1,-1,-1,-1,-1,-1,-1,-1,-1,-1,-1,-1,-1,-1,-1,-1,-1,-1,-1,-1,-1,-1,-1,-1,-1,-1,-1,-1,-1,-1,-1],"loss_changes":[5.493924E-2,6.1988086E-3,1.7503241E-2,3.0089617E-3,6.364978E-3,6.3979067E-3,3.6689192E-3,3.827855E-3,6.0344115E-5,9.829644E-4,4.084288E-3,1.8502608E-3,3.9975643E-3,8.9981826E-5,3.3155084E-6,7.0117414E-3,2.2829555E-3,9.397231E-5,0E0,5.1400345E-4,0E0,3.804856E-3,5.7436526E-4,9.998849E-4,1.0118806E-3,8.722039E-3,3.1779462E-3,1.0773749E-4,1.3827247E-4,8.894096E-5,0E0,1.1909232E-2,1.8855184E-3,1.3883271E-4,3.316542E-4,0E0,0E0,0E0,1.5209895E-4,2.5329576E-3,3.5814103E-4,1.0006549E-4,4.0376186E-4,1.5636231E-4,1.445834E-3,1.5872563E-6,0E0,9.88162E-4,1.1752788E-3,1.4879156E-3,1.1087633E-3,5.3395546E-5,3.448082E-5,9.733794E-6,8.767704E-6,0E0,1.3103592E-4,0E0,0E0,0E0,0E0,0E0,0E0,0E0,0E0,0E0,0E0,0E0,0E0,0E0,0E0,0E0,0E0,0E0,0E0,0E0,0E0,0E0,0E0,0E0,0E0,0E0,0E0,0E0,0E0,0E0,0E0,0E0,0E0,0E0,0E0,0E0,0E0,0E0,0E0,0E0,0E0,0E0,0E0],"parents":[2147483647,0,0,1,1,2,2,3,3,4,4,5,5,6,6,7,7,8,8,9,9,10,10,11,11,12,12,13,13,14,14,15,15,16,16,17,17,19,19,21,21,22,22,23,23,24,24,25,25,26,26,27,27,28,28,29,29,31,31,32,32,33,33,34,34,38,38,39,39,40,40,41,41,42,42,43,43,44,44,45,45,47,47,48,48,49,49,50,50,51,51,52,52,53,53,54,54,56,56],"right_children":[2,4,6,8,10,12,14,16,18,20,22,24,26,28,30,32,34,36,-1,38,-1,40,42,44,46,48,50,52,54,56,-1,58,60,62,64,-1,-1,-1,66,68,70,72,74,76,78,80,-1,82,84,86,88,90,92,94,96,-1,98,-1,-1,-1,-1,-1,-1,-1,-1,-1,-1,-1,-1,-1,-1,-1,-1,-1,-1,-1,-1,-1,-1,-1,-1,-1,-1,-1,-1,-1,-1,-1,-1,-1,-1,-1,-1,-1,-1,-1,-1,-1,-1],"split_conditions":[7.8305885E-2,1.6972327E-1,4.1449827E-1,7.080732E-2,2.3835644E-2,5.000188E-1,7.149727E-1,4.2967007E-2,1.59101E-6,9.786601E-1,5.0040424E-1,9.749379E-1,3.2482663E-1,1.5609531E-1,9.0388566E-1,3.4497567E-2,8.5714287E-1,4.7493798E-1,-2.7401582E-3,5.8569165E-4,-1.6168721E-2,1.9410506E-1,9.2218745E-1,1.3018242E-1,2.8001774E-5,8.5714287E-1,4.71464E-1,2.3528647E-1,9.53598E-1,7.866857E-1,4.3146345E-3,3.3946253E-2,4.71464E-1,1.4285715E-1,4.480901E-1,-1.0937104E-2,-2.82636E-3,-7.188991E-5,9.533499E-1,4.71464E-1,2.6652998E-1,9.4342434E-1,5.9817303E-3,4.71464E-1,4.71464E-1,9.816377E-1,-9.128571E-3,9.503722E-1,2.4305636E-1,8.062911E-1,1.9191363E-1,9.9776673E-1,1.2413659E-3,2.769928E-1,9.7220844E-1,5.050141E-3,8.1032765E-1,-4.061244E-3,7.6487316E-3,-7.966285E-3,-3.645951E-3,3.902363E-4,2.0447553E-3,-3.5461087E-3,3.236141E-4,-7.86289E-3,-2.6855252E-3,2.3180283E-4,-2.1237896E-3,-7.2603566E-3,-2.340828E-3,-1.2574282E-2,-4.324507E-3,-1.7640293E-3,-5.385789E-3,-3.12135E-3,4.4395926E-4,1.3876945E-3,-3.2203418E-4,1.7420949E-5,-4.2904392E-4,-1.188484E-3,4.371706E-3,-5.5372473E-3,-2.312864E-3,-5.445945E-3,4.6971007E-4,-4.4680913E-3,-1.7496732E-3,8.527771E-4,-1.1835188E-3,1.3313812E-3,7.6869334E-4,-7.716671E-4,1.291886E-4,4.5703055E-4,2.2595243E-3,1.15656854E-4,2.815565E-3],"split_indices":[12,14,14,13,12,9,12,13,8,2,11,2,14,6,12,13,1,2,0,11,0,14,7,14,9,1,2,13,2,12,0,13,2,0,6,0,0,0,2,2,14,2,13,2,2,2,0,2,13,7,12,3,6,6,2,0,12,0,0,0,0,0,0,0,0,0,0,0,0,0,0,0,0,0,0,0,0,0,0,0,0,0,0,0,0,0,0,0,0,0,0,0,0,0,0,0,0,0,0],"split_type":[0,0,0,0,0,0,0,0,0,0,0,0,0,0,0,0,0,0,0,0,0,0,0,0,0,0,0,0,0,0,0,0,0,0,0,0,0,0,0,0,0,0,0,0,0,0,0,0,0,0,0,0,0,0,0,0,0,0,0,0,0,0,0,0,0,0,0,0,0,0,0,0,0,0,0,0,0,0,0,0,0,0,0,0,0,0,0,0,0,0,0,0,0,0,0,0,0,0,0],"sum_hessian":[2E3,1.258E3,7.42E2,1.048E3,2.1E2,5.8E2,1.62E2,1.04E3,8E0,1.3E1,1.97E2,1.97E2,3.83E2,1.04E2,5.8E1,9.94E2,4.6E1,7E0,1E0,1.2E1,1E0,1.75E2,2.2E1,1.93E2,4E0,1.92E2,1.91E2,9.6E1,8E0,1.4E1,4.4E1,9.26E2,6.8E1,2.1E1,2.5E1,6E0,1E0,1E0,1.1E1,1.63E2,1.2E1,3E0,1.9E1,9E0,1.84E2,2E0,2E0,9.9E1,9.3E1,9.1E1,1E2,3E0,9.3E1,6E0,2E0,2E0,1.2E1,9.19E2,7E0,5.4E1,1.4E1,1.5E1,6E0,2.3E1,2E0,9E0,2E0,8.1E1,8.2E1,9E0,3E0,1E0,2E0,5E0,1.4E1,8E0,1E0,7.3E1,1.11E2,1E0,1E0,9.7E1,2E0,7.9E1,1.4E1,3E0,8.8E1,1.6E1,8.4E1,1E0,2E0,7.6E1,1.7E1,5E0,1E0,1E0,1E0,2E0,1E1],"tree_param":{"num_deleted":"0","num_feature":"15","num_nodes":"99","size_leaf_vector":"0"}},{"base_weights":[-6.1425325E-3,-8.878844E-3,-1.132745E-3,-1.5090652E-2,-8.328964E-3,-3.0830903E-3,5.0576604E-3,-1.2713941E-2,-2.1731788E-2,-9.832901E-3,-5.748952E-3,-2.2297818E-3,-1.0865697E-2,2.5124263E-3,9.682048E-3,-1.4600601E-2,-6.807898E-3,-2.4596922E-2,-8.081855E-3,-9.370505E-3,-1.8034335E-2,-3.0096977E-3,-1.1096954E-2,-1.6580662E-3,-1.3691434E-2,-2.0782908E-2,-8.640795E-3,-5.761256E-3,2.7170926E-3,-1.5543332E-2,-1.3104329E-3,2.649714E-2,-9.798007E-3,-2.7224042E-2,-1.0745335E-2,-1.1353828E-3,-9.244073E-3,-1.2180622E-2,-8.0834795E-3,-2.68089E-2,-1.4508335E-2,-4.957845E-3,6.792462E-3,-1.6858114E-2,-6.052301E-3,1.3529484E-3,-3.799532E-3,-6.317322E-3,-2.6728228E-2,-3.5721783E-3,-2.518995E-2,-1.2134509E-2,-5.6209834E-3,4.6816566E-3,2.4022907E-3,-1.3142173E-2,-2.1636575E-2,-4.423048E-3,2.2389933E-3,6.5706186E-3,-1.10053355E-2,-3.4763493E-2,-1.4396721E-2,-1.2851094E-2,-5.5012777E-3,-1.2163393E-2,-4.45545E-3,-1.0027533E-2,-2.2467187E-2,-4.4813724E-3,-3.2544985E-2,1.4802424E-2,2.0745941E-3,-1.876283E-2,-8.7502785E-3,-3.3179573E-3,-1.4800266E-2,1.9148786E-3,-8.169609E-3,-4.323122E-3,1.1981274E-2,-8.8673625E-3,-1.7719333E-3,-1.1784275E-2,-4.7706723E-2,-5.277641E-3,-8.062646E-5,-5.245203E-3,-1.5440659E-2,-1.0143376E-2,-3.7570968E-3,8.106232E-5,5.029313E-3,-6.345113E-4,2.8027534E-3],"categories":[],"categories_nodes":[],"categories_segments":[],"categories_sizes":[],"default_left":[1,1,1,1,1,1,1,1,1,1,1,1,1,1,0,1,1,1,1,1,1,1,1,1,1,1,1,0,1,1,1,0,1,1,0,0,0,1,1,0,1,1,1,1,1,1,1,1,1,1,0,1,1,1,1,0,0,0,0,0,0,0,0,0,0,0,0,0,0,0,0,0,0,0,0,0,0,0,0,0,0,0,0,0,0,0,0,0,0,0,0,0,0,0,0],"id":11,"left_children":[1,3,5,7,9,11,13,15,17,19,21,23,25,27,-1,29,31,33,35,37,39,41,43,45,47,49,51,-1,53,55,57,-1,59,61,-1,-1,-1,63,65,-1,67,69,71,73,75,77,79,81,83,85,-1,87,89,91,93,-1,-1,-1,-1,-1,-1,-1,-1,-1,-1,-1,-1,-1,-1,-1,-1,-1,-1,-1,-1,-1,-1,-1,-1,-1,-1,-1,-1,-1,-1,-1,-1,-1,-1,-1,-1,-1,-1,-1,-1],"loss_changes":[2.7420327E-2,4.294291E-3,8.563581E-3,1.3652463E-3,4.5647547E-3,3.5552513E-3,1.9766E-3,7.8087393E-4,8.18043E-4,2.6790425E-3,6.427047E-3,3.168515E-3,9.898553E-4,2.03615E-4,0E0,7.1884505E-4,2.3509187E-3,4.7165342E-4,3.794435E-5,2.4802387E-3,8.176733E-4,5.628819E-3,4.2283647E-3,3.0034538E-3,2.0422493E-3,5.926527E-4,4.0655816E-4,0E0,5.6164165E-5,5.2034575E-4,6.514316E-5,0E0,4.675578E-4,1.1436064E-3,0E0,0E0,0E0,9.234883E-4,7.2284155E-3,0E0,8.4457034E-4,3.0745617E-3,1.8209983E-3,9.013973E-4,1.888409E-3,1.0537405E-3,2.2992422E-3,1.6974239E-4,1.9458239E-3,1.7438619E-5,0E0,3.745521E-4,1.8105016E-4,2.1984277E-5,1.18526514E-4,0E0,0E0,0E0,0E0,0E0,0E0,0E0,0E0,0E0,0E0,0E0,0E0,0E0,0E0,0E0,0E0,0E0,0E0,0E0,0E0,0E0,0E0,0E0,0E0,0E0,0E0,0E0,0E0,0E0,0E0,0E0,0E0,0E0,0E0,0E0,0E0,0E0,0E0,0E0,0E0],"parents":[2147483647,0,0,1,1,2,2,3,3,4,4,5,5,6,6,7,7,8,8,9,9,10,10,11,11,12,12,13,13,15,15,16,16,17,17,18,18,19,19,20,20,21,21,22,22,23,23,24,24,25,25,26,26,28,28,29,29,30,30,32,32,33,33,37,37,38,38,40,40,41,41,42,42,43,43,44,44,45,45,46,46,47,47,48,48,49,49,51,51,52,52,53,53,54,54],"right_children":[2,4,6,8,10,12,14,16,18,20,22,24,26,28,-1,30,32,34,36,38,40,42,44,46,48,50,52,-1,54,56,58,-1,60,62,-1,-1,-1,64,66,-1,68,70,72,74,76,78,80,82,84,86,-1,88,90,92,94,-1,-1,-1,-1,-1,-1,-1,-1,-1,-1,-1,-1,-1,-1,-1,-1,-1,-1,-1,-1,-1,-1,-1,-1,-1,-1,-1,-1,-1,-1,-1,-1,-1,-1,-1,-1,-1,-1,-1,-1],"split_conditions":[9.504934E-2,9.8833746E-1,3.91401E-1,2.9359631E-2,3.3705533E-2,1.4322889E-1,6.9759583E-1,5.6825313E-3,9.6253103E-1,1.4549423E-2,3.4767225E-2,8.100852E-7,1.18336245E-1,9.9404466E-1,2.9046144E-3,9.7146404E-1,6.428572E-1,4.887099E-2,4.4675767E-2,1.0403724E-2,1.46489665E-2,3.1113397E-2,3.8541093E-2,4.71464E-1,1.774546E-1,8.612715E-1,2.763809E-1,-1.7283768E-3,4.5779216E-1,9.80397E-1,9.8089325E-1,7.949143E-3,9.4317615E-1,1.5105295E-1,-3.2236008E-3,-3.4061485E-4,-2.773222E-3,7.1428575E-2,8.5714287E-1,-8.042671E-3,2.375498E-2,7.1428575E-2,1.4837727E-1,4.71464E-1,7.080732E-2,3.1820198E-7,3.6347095E-2,1.4336957E-1,8.100852E-6,4.7890818E-1,-7.556985E-3,1.7499027E-1,6.904321E-2,9.3910587E-1,4.907056E-1,-3.942652E-3,-6.490973E-3,-1.3269144E-3,6.71698E-4,1.9711857E-3,-3.3016007E-3,-1.0429048E-2,-4.3190164E-3,-3.8553283E-3,-1.6503833E-3,-3.649018E-3,-1.3366351E-3,-3.0082602E-3,-6.740156E-3,-1.3444118E-3,-9.763496E-3,4.4407276E-3,6.2237825E-4,-5.6288494E-3,-2.6250836E-3,-9.953872E-4,-4.44008E-3,5.7446363E-4,-2.450883E-3,-1.2969367E-3,3.5943824E-3,-2.6602088E-3,-5.3158E-4,-3.5352826E-3,-1.4312018E-2,-1.5832924E-3,-2.4187939E-5,-1.573561E-3,-4.632198E-3,-3.043013E-3,-1.1271291E-3,2.4318697E-5,1.5087939E-3,-1.903534E-4,8.40826E-4],"split_indices":[12,3,14,12,12,6,12,13,2,13,13,10,12,3,0,2,1,13,12,14,13,13,13,2,13,7,14,0,14,3,3,0,2,14,0,0,0,0,1,0,13,0,14,2,13,8,6,12,10,2,0,12,13,7,12,0,0,0,0,0,0,0,0,0,0,0,0,0,0,0,0,0,0,0,0,0,0,0,0,0,0,0,0,0,0,0,0,0,0,0,0,0,0,0,0],"split_type":[0,0,0,0,0,0,0,0,0,0,0,0,0,0,0,0,0,0,0,0,0,0,0,0,0,0,0,0,0,0,0,0,0,0,0,0,0,0,0,0,0,0,0,0,0,0,0,0,0,0,0,0,0,0,0,0,0,0,0,0,0,0,0,0,0,0,0,0,0,0,0,0,0,0,0,0,0,0,0,0,0,0,0,0,0,0,0,0,0,0,0,0,0,0,0],"sum_hessian":[2E3,1.293E3,7.07E2,1.03E2,1.19E3,5.38E2,1.69E2,7.8E1,2.5E1,7.5E2,4.4E2,4.86E2,5.2E1,1.1E2,5.9E1,5.8E1,2E1,2E1,5E0,7.12E2,3.8E1,2.92E2,1.48E2,4.64E2,2.2E1,8E0,4.4E1,2E0,1.08E2,5.4E1,4E0,1E0,1.9E1,1.6E1,4E0,1E0,4E0,2.21E2,4.91E2,9E0,2.9E1,2.44E2,4.8E1,6.8E1,8E1,1.93E2,2.71E2,1.5E1,7E0,2E0,6E0,1.9E1,2.5E1,1.3E1,9.5E1,4.1E1,1.3E1,2E0,2E0,1E0,1.8E1,9E0,7E0,2E2,2.1E1,2.3E2,2.61E2,2E1,9E0,2.41E2,3E0,1.7E1,3.1E1,5.4E1,1.4E1,6.2E1,1.8E1,1.83E2,1E1,2.63E2,8E0,9E0,6E0,5E0,2E0,1E0,1E0,7E0,1.2E1,6E0,1.9E1,1E0,1.2E1,1.1E1,8.4E1],"tree_param":{"num_deleted":"0","num_feature":"15","num_nodes":"95","size_leaf_vector":"0"}},{"base_weights":[-4.3549314E-3,-6.3693994E-3,-9.3559036E-4,-8.38265E-3,-5.4928027E-3,-2.2654438E-3,3.560124E-3,-7.696847E-3,-1.1161347E-2,4.6689766E-3,-5.783167E-3,-2.1461852E-2,-1.9905996E-3,1.7850815E-3,6.8693557E-3,-9.217677E-3,-5.456785E-3,2.4451316E-5,-1.1810153E-2,8.346829E-3,-1.6726451E-2,-5.6801927E-3,-3.3168815E-2,-2.9979562E-2,-5.4492503E-3,-1.2756182E-3,-7.6902015E-3,-4.609009E-3,1.9432377E-3,1.1530657E-2,6.503509E-3,-1.0937777E-2,-7.1703806E-3,-8.00201E-3,-3.4643996E-3,5.34319E-3,-5.302438E-3,-1.0077284E-2,-1.5839951E-2,-1.3534727E-2,1.2514165E-2,-2.2314679E-2,-7.425482E-3,-1.1003551E-2,-5.1685297E-3,-4.514306E-2,-4.610162E-3,-5.8576465E-5,-3.7445165E-2,-6.8147383E-3,-6.763935E-4,-1.6650745E-3,1.0731205E-2,-6.0716225E-3,-1.3448456E-2,1.7126017E-3,4.6697706E-3,-1.6279618E-3,6.828798E-3,-3.902427E-2,-9.31014E-3,1.372288E-2,-9.195389E-3,-5.1703667E-3,-8.671994E-3,1.092357E-3,-4.290475E-3,-1.0780354E-2,-4.1179354E-3,1.567374E-2,3.0561301E-3,2.260766E-2,-1.2251191E-2,-7.5841127E-3,-2.8839775E-3,8.49583E-4,-3.1799325E-3,6.261336E-3,1.931265E-2,-9.316825E-3,-3.288475E-3,-1.50084E-2,2.6354343E-3,1.8186602E-3,-2.4288993E-3,6.250009E-3,-4.7296286E-5,3.9562704E-3,7.3048086E-3],"categories":[],"categories_nodes":[],"categories_segments":[],"categories_sizes":[],"default_left":[1,1,1,1,1,1,1,1,1,1,1,1,1,1,1,1,1,1,1,1,1,1,1,1,1,1,1,0,1,0,1,1,1,1,1,0,0,1,0,0,1,0,0,1,1,0,0,0,0,0,0,1,1,1,1,1,1,0,1,0,0,0,0,0,0,0,0,0,0,0,0,0,0,0,0,0,0,0,0,0,0,0,0,0,0,0,0,0,0],"id":12,"left_children":[1,3,5,7,9,11,13,15,17,19,21,23,25,27,29,31,33,35,37,39,41,43,45,47,49,51,53,-1,55,-1,57,59,61,63,65,-1,-1,67,-1,-1,69,-1,-1,71,73,-1,-1,-1,-1,-1,-1,75,77,79,81,83,85,-1,87,-1,-1,-1,-1,-1,-1,-1,-1,-1,-1,-1,-1,-1,-1,-1,-1,-1,-1,-1,-1,-1,-1,-1,-1,-1,-1,-1,-1,-1,-1],"loss_changes":[1.3777237E-2,2.175849E-3,4.450196E-3,6.3823536E-4,2.623545E-3,2.9857154E-3,9.863221E-4,9.989813E-4,5.3007994E-4,2.1068428E-3,2.2255313E-3,9.2775933E-4,2.3007768E-3,1.222181E-4,2.562441E-5,5.6249555E-4,6.163034E-4,1.699936E-4,3.222106E-4,2.1755074E-3,4.220649E-5,2.2692215E-3,8.177883E-4,1.1146977E-3,2.1459666E-5,2.3793152E-3,5.055177E-4,0E0,6.117456E-5,0E0,1.6188645E-4,4.0709963E-3,3.764764E-3,5.9506157E-5,2.7947524E-4,0E0,0E0,1.6928883E-4,0E0,0E0,5.198829E-4,0E0,0E0,3.3801384E-3,4.288096E-3,0E0,0E0,0E0,0E0,0E0,0E0,1.8692828E-3,4.9280387E-4,4.2998767E-4,3.657234E-4,4.9659167E-5,5.992831E-5,0E0,4.6304427E-5,0E0,0E0,0E0,0E0,0E0,0E0,0E0,0E0,0E0,0E0,0E0,0E0,0E0,0E0,0E0,0E0,0E0,0E0,0E0,0E0,0E0,0E0,0E0,0E0,0E0,0E0,0E0,0E0,0E0,0E0],"parents":[2147483647,0,0,1,1,2,2,3,3,4,4,5,5,6,6,7,7,8,8,9,9,10,10,11,11,12,12,13,13,14,14,15,15,16,16,17,17,18,18,19,19,20,20,21,21,22,22,23,23,24,24,25,25,26,26,28,28,30,30,31,31,32,32,33,33,34,34,37,37,40,40,43,43,44,44,51,51,52,52,53,53,54,54,55,55,56,56,58,58],"right_children":[2,4,6,8,10,12,14,16,18,20,22,24,26,28,30,32,34,36,38,40,42,44,46,48,50,52,54,-1,56,-1,58,60,62,64,66,-1,-1,68,-1,-1,70,-1,-1,72,74,-1,-1,-1,-1,-1,-1,76,78,80,82,84,86,-1,88,-1,-1,-1,-1,-1,-1,-1,-1,-1,-1,-1,-1,-1,-1,-1,-1,-1,-1,-1,-1,-1,-1,-1,-1,-1,-1,-1,-1,-1,-1],"split_conditions":[7.8305885E-2,2.8793123E-2,3.91401E-1,8.341832E-3,2.2274138E-5,6.9648755E-1,7.149727E-1,1.7972582E-3,1.6864706E-5,4.3084383E-2,9.952854E-1,2.4695155E-1,1.4322889E-1,9.9404466E-1,7.866857E-1,4.71464E-1,8.201124E-3,4.71464E-1,2.0495156E-4,6.5947883E-3,1.59101E-6,9.8833746E-1,9.962779E-1,3.3058274E-1,6.520179E-2,2.6825964E-2,6.5766823E-1,-1.3827027E-3,9.786601E-1,3.4591972E-3,8.1032765E-1,3.5714287E-1,3.5714287E-1,2.8319977E-5,2.1955937E-5,1.602957E-3,-1.5907314E-3,9.503722E-1,-4.7519854E-3,-4.0604183E-3,2.5456159E-6,-6.694404E-3,-2.2276447E-3,6.428572E-1,8.5714287E-1,-1.35429185E-2,-1.3830487E-3,-1.757294E-5,-1.123355E-2,-2.0444216E-3,-2.0291806E-4,5.000188E-1,1.9449809E-1,6.904321E-2,9.4640195E-1,9.7617865E-1,9.895781E-1,-4.883885E-4,9.006661E-1,-1.1707282E-2,-2.7930422E-3,4.116864E-3,-2.7586168E-3,-1.5511101E-3,-2.6015984E-3,3.277071E-4,-1.2871425E-3,-3.2341063E-3,-1.2353807E-3,4.702122E-3,9.1683905E-4,6.7822984E-3,-3.6753574E-3,-2.2752339E-3,-8.6519326E-4,2.548749E-4,-9.539798E-4,1.8784009E-3,5.793795E-3,-2.7950476E-3,-9.865426E-4,-4.5025204E-3,7.906303E-4,5.455981E-4,-7.286698E-4,1.8750028E-3,-1.4188886E-5,1.1868812E-3,2.1914428E-3],"split_indices":[12,14,14,12,9,7,12,12,9,13,2,12,6,3,12,2,14,2,10,12,8,3,2,7,6,6,6,0,2,0,12,1,1,9,9,0,0,2,0,0,8,0,0,1,1,0,0,0,0,0,0,9,12,13,2,2,2,0,12,0,0,0,0,0,0,0,0,0,0,0,0,0,0,0,0,0,0,0,0,0,0,0,0,0,0,0,0,0,0],"split_type":[0,0,0,0,0,0,0,0,0,0,0,0,0,0,0,0,0,0,0,0,0,0,0,0,0,0,0,0,0,0,0,0,0,0,0,0,0,0,0,0,0,0,0,0,0,0,0,0,0,0,0,0,0,0,0,0,0,0,0,0,0,0,0,0,0,0,0,0,0,0,0,0,0,0,0,0,0,0,0,0,0,0,0,0,0,0,0,0,0],"sum_hessian":[2E3,1.258E3,7.42E2,3.79E2,8.79E2,5.73E2,1.69E2,3.07E2,7.2E1,2.4E1,8.55E2,7E0,5.66E2,1.11E2,5.8E1,1.81E2,1.26E2,4E0,6.8E1,2.1E1,3E0,8.53E2,2E0,4E0,3E0,5.04E2,6.2E1,2E0,1.09E2,2E0,5.6E1,9.6E1,8.5E1,5.4E1,7.2E1,2E0,2E0,5E1,1.8E1,3E0,1.8E1,1E0,2E0,7.3E1,7.8E2,1E0,1E0,1E0,3E0,2E0,1E0,4.89E2,1.5E1,5E1,1.2E1,1.02E2,7E0,2E0,5.4E1,4E0,9.2E1,7E0,7.8E1,1.2E1,4.2E1,1.1E1,6.1E1,4.4E1,6E0,1.3E1,5E0,2E0,7.1E1,3.78E2,4.02E2,1.84E2,3.05E2,1.1E1,4E0,2.2E1,2.8E1,1.1E1,1E0,1E2,2E0,5E0,2E0,9E0,4.5E1],"tree_param":{"num_deleted":"0","num_feature":"15","num_nodes":"89","size_leaf_vector":"0"}},{"base_weights":[-3.0770195E-3,-4.498124E-3,-6.6484144E-4,-4.391084E-3,-1.8876951E-2,-1.6102354E-3,2.531164E-3,-4.3303967E-3,-2.819349E-2,-2.012909E-2,-4.4299215E-3,-1.671061E-2,-1.394339E-3,1.252177E-3,4.916171E-3,-5.9135268E-3,-3.5939445E-3,-3.83716E-2,-3.9186366E-3,-2.1702234E-2,-4.558541E-3,-3.319812E-2,-9.612663E-3,-1.0958535E-3,-1.1604944E-2,-2.645135E-3,1.421014E-3,9.2245145E-3,4.6031675E-3,-5.6728213E-3,-1.3800629E-2,5.644145E-3,-3.8333258E-3,-5.313821E-3,-1.7702855E-2,-7.389048E-4,-8.590776E-3,-9.841058E-5,-2.3099177E-2,-3.4402832E-3,2.6772916E-4,4.7383383E-3,1.1441861E-3,-1.3023615E-3,4.841593E-3,-4.9894424E-3,-7.623232E-3,-1.04894135E-2,8.743623E-3,-3.5275295E-3,-9.976416E-3,-4.979223E-5,-6.3566687E-3,-9.336983E-5,-5.5020857E-3,-2.995654E-3,-2.010595E-2,-5.7851933E-3,1.3355864E-3,-3.003202E-2,-1.5337666E-3,-2.0389259E-4,5.4734987E-3,1.381763E-3,-2.2435274E-3,3.1127243E-3,5.251679E-3],"categories":[],"categories_nodes":[],"categories_segments":[],"categories_sizes":[],"default_left":[1,1,1,1,1,1,1,1,1,1,0,1,1,1,1,1,1,0,0,0,0,0,1,1,1,1,1,0,1,1,0,1,1,1,0,1,1,1,1,0,0,1,1,0,1,0,0,0,0,0,0,0,0,0,0,0,0,0,0,0,0,0,0,0,0,0,0],"id":13,"left_children":[1,3,5,7,9,11,13,15,17,19,-1,21,23,25,27,29,31,-1,-1,-1,-1,-1,33,35,37,39,41,-1,43,45,-1,47,49,51,-1,53,55,57,59,-1,-1,61,63,-1,65,-1,-1,-1,-1,-1,-1,-1,-1,-1,-1,-1,-1,-1,-1,-1,-1,-1,-1,-1,-1,-1,-1],"loss_changes":[6.856354E-3,1.8548574E-3,2.2490388E-3,1.6849805E-3,7.363688E-5,1.8480062E-3,5.124109E-4,1.4349557E-3,5.90852E-4,9.702705E-5,0E0,6.1709736E-4,1.7153391E-3,7.745589E-5,3.7101097E-5,6.716065E-4,1.9124048E-3,0E0,0E0,0E0,0E0,0E0,1.4937937E-4,1.4704191E-3,2.113867E-3,1.2501856E-5,9.375786E-5,0E0,8.656329E-5,4.751198E-4,0E0,1.1918389E-3,1.531505E-3,3.262097E-5,0E0,1.6229806E-3,1.5504893E-3,8.1120095E-5,1.1500143E-3,0E0,0E0,3.018268E-5,8.43891E-5,0E0,2.2647087E-5,0E0,0E0,0E0,0E0,0E0,0E0,0E0,0E0,0E0,0E0,0E0,0E0,0E0,0E0,0E0,0E0,0E0,0E0,0E0,0E0,0E0,0E0],"parents":[2147483647,0,0,1,1,2,2,3,3,4,4,5,5,6,6,7,7,8,8,9,9,11,11,12,12,13,13,14,14,15,15,16,16,22,22,23,23,24,24,25,25,26,26,28,28,29,29,31,31,32,32,33,33,35,35,36,36,37,37,38,38,41,41,42,42,44,44],"right_children":[2,4,6,8,10,12,14,16,18,20,-1,22,24,26,28,30,32,-1,-1,-1,-1,-1,34,36,38,40,42,-1,44,46,-1,48,50,52,-1,54,56,58,60,-1,-1,62,64,-1,66,-1,-1,-1,-1,-1,-1,-1,-1,-1,-1,-1,-1,-1,-1,-1,-1,-1,-1,-1,-1,-1,-1],"split_conditions":[7.8305885E-2,7.080732E-2,3.91401E-1,9.952854E-1,1.59101E-6,6.9648755E-1,7.149727E-1,3.17354E-2,9.962779E-1,4.7493798E-1,-1.3289765E-3,3.3296477E-2,9.744417E-1,3.354243E-1,7.866857E-1,2.375498E-2,2.2274138E-5,-1.151148E-2,-1.175591E-3,-6.5106703E-3,-1.3675623E-3,-9.959436E-3,6.6302043E-1,8.100852E-7,1.8426642E-1,1.4685874E-1,4.0671134E-1,2.7673545E-3,8.1032765E-1,2.9406094E-4,-4.140189E-3,6.5947883E-3,4.65464E-1,4.002398E-1,-5.3108567E-3,1.4322889E-1,1.774546E-1,9.8833746E-1,9.853598E-1,-1.032085E-3,8.031875E-5,9.3910587E-1,1.5609531E-1,-3.9070848E-4,9.0468186E-1,-1.4968328E-3,-2.2869697E-3,-3.1468242E-3,2.623087E-3,-1.0582589E-3,-2.992925E-3,-1.4937669E-5,-1.9070007E-3,-2.801095E-5,-1.6506257E-3,-8.9869625E-4,-6.0317856E-3,-1.735558E-3,4.0067596E-4,-9.009606E-3,-4.6013002E-4,-6.116778E-5,1.6420496E-3,4.145289E-4,-6.7305827E-4,9.338173E-4,1.5755038E-3],"split_indices":[12,13,14,2,8,7,12,14,2,2,0,6,2,12,12,13,9,0,0,0,0,0,7,10,14,6,12,0,12,10,0,12,6,7,0,6,13,3,2,0,0,7,6,0,12,0,0,0,0,0,0,0,0,0,0,0,0,0,0,0,0,0,0,0,0,0,0],"split_type":[0,0,0,0,0,0,0,0,0,0,0,0,0,0,0,0,0,0,0,0,0,0,0,0,0,0,0,0,0,0,0,0,0,0,0,0,0,0,0,0,0,0,0,0,0,0,0,0,0,0,0,0,0,0,0,0,0,0,0,0,0,0,0,0,0,0,0],"sum_hessian":[2E3,1.258E3,7.42E2,1.25E3,8E0,5.73E2,1.69E2,1.248E3,2E0,7E0,1E0,7E0,5.66E2,1.11E2,5.8E1,3.94E2,8.54E2,1E0,1E0,6E0,1E0,1E0,6E0,5.51E2,1.5E1,4E0,1.07E2,2E0,5.6E1,3.84E2,1E1,2.1E1,8.33E2,5E0,1E0,5.27E2,2.4E1,8E0,7E0,3E0,1E0,7E0,1E2,2E0,5.4E1,2.87E2,9.7E1,3E0,1.8E1,7.95E2,3.8E1,1E0,4E0,4.65E2,6.2E1,1.7E1,7E0,1E0,7E0,5E0,2E0,1E0,6E0,9.4E1,6E0,1.2E1,4.2E1],"tree_param":{"num_deleted":"0","num_feature":"15","num_nodes":"67","size_leaf_vector":"0"}},{"base_weights":[-2.1867699E-3,-2.8925457E-3,2.6627103E-4,-7.0604812E-3,-2.5482804E-3,4.9285655E-4,-3.35082E-2,-4.8505766E-3,-1.1248531E-2,-2.3773022E-3,-1.0487921E-2,-2.8218403E-2,6.207884E-4,-1.5265658E-2,-3.9405623E-3,-1.5216606E-2,-5.5532935E-3,-8.437504E-3,-2.189368E-3,-3.6308037E-3,-2.8891142E-2,7.5754424E-4,-9.511438E-3,1.3446844E-2,-4.8646335E-3,-1.7046316E-2,-2.2639092E-3,-7.202361E-3,2.0190328E-3,-3.6012835E-3,-1.785271E-2,-2.8749309E-3,-1.9675631E-4,1.5492843E-2,-6.1898576E-3,-3.1465545E-2,-5.4351687E-3,2.0899056E-4,2.949384E-3,-1.3757154E-2,5.8585703E-3,-1.2937617E-3,1.8791633E-2,7.1939675E-4,-6.0125617E-3,-8.460695E-3,-2.1018518E-2,1.4017317E-3,-3.9530336E-3,1.5528215E-3,-8.66876E-3,-3.3848733E-4,2.917702E-3,-6.834951E-3,9.0438075E-4,-2.7951417E-2,-1.1018086E-2,-3.9816066E-3,5.221741E-5,5.43686E-4,-6.690729E-3,1.8661093E-2,4.578172E-3,-1.0156554E-2,1.525593E-3,-1.6378177E-2,-3.8686525E-2,2.037732E-3,-1.2662653E-3,1.7207742E-3,3.5241116E-3],"categories":[],"categories_nodes":[],"categories_segments":[],"categories_sizes":[],"default_left":[1,1,1,1,1,1,0,1,1,1,1,0,1,0,1,1,1,1,1,1,1,1,1,1,1,1,1,1,1,1,1,1,1,1,1,1,0,1,1,0,0,0,0,0,0,0,0,0,0,0,0,0,0,0,0,0,0,0,0,0,0,0,0,0,0,0,0,0,0,0,0],"id":14,"left_children":[1,3,5,7,9,11,-1,13,15,17,19,-1,21,-1,23,25,27,29,31,33,35,37,39,41,43,45,47,49,51,53,55,57,59,61,63,65,-1,67,69,-1,-1,-1,-1,-1,-1,-1,-1,-1,-1,-1,-1,-1,-1,-1,-1,-1,-1,-1,-1,-1,-1,-1,-1,-1,-1,-1,-1,-1,-1,-1,-1],"loss_changes":[3.4650955E-3,2.2118036E-3,3.4449722E-3,1.0375506E-3,1.9258047E-3,1.6557131E-3,0E0,6.8859686E-4,8.194628E-4,1.5851231E-3,3.6808932E-3,0E0,6.238157E-4,0E0,1.2543871E-3,5.065012E-4,2.3931277E-4,1.8481363E-3,1.8668389E-3,1.2214828E-3,3.1206012E-4,5.2841404E-4,4.721374E-4,3.3945357E-4,4.5944017E-4,5.042455E-4,3.0307985E-5,2.0603999E-4,9.462128E-6,4.2870623E-4,6.583207E-4,3.2946821E-3,1.6913903E-3,1.8307474E-5,6.5819663E-4,1.2900447E-4,0E0,9.5492543E-4,5.6074E-5,0E0,0E0,0E0,0E0,0E0,0E0,0E0,0E0,0E0,0E0,0E0,0E0,0E0,0E0,0E0,0E0,0E0,0E0,0E0,0E0,0E0,0E0,0E0,0E0,0E0,0E0,0E0,0E0,0E0,0E0,0E0,0E0],"parents":[2147483647,0,0,1,1,2,2,3,3,4,4,5,5,7,7,8,8,9,9,10,10,12,12,14,14,15,15,16,16,17,17,18,18,19,19,20,20,21,21,22,22,23,23,24,24,25,25,26,26,27,27,28,28,29,29,30,30,31,31,32,32,33,33,34,34,35,35,37,37,38,38],"right_children":[2,4,6,8,10,12,-1,14,16,18,20,-1,22,-1,24,26,28,30,32,34,36,38,40,42,44,46,48,50,52,54,56,58,60,62,64,66,-1,68,70,-1,-1,-1,-1,-1,-1,-1,-1,-1,-1,-1,-1,-1,-1,-1,-1,-1,-1,-1,-1,-1,-1,-1,-1,-1,-1,-1,-1,-1,-1,-1,-1],"split_conditions":[1.6982615E-1,9.8833746E-1,8.910938E-6,2.9359631E-2,9.744417E-1,4.532569E-1,-1.005246E-2,8.388241E-5,5.619308E-2,8.4716284E-1,1.8426642E-1,-8.465521E-3,6.5978104E-1,-4.5796973E-3,6.428572E-1,9.6253103E-1,1.4164668E-1,1.4859681E-1,1.3018242E-1,8.5714287E-1,1.3755229E-1,6.143991E-1,7.034606E-1,9.6972704E-1,8.5714287E-1,5.0040424E-1,4.4675767E-2,6.5065145E-2,9.471464E-1,3.3975697E-1,7.213886E-1,4.71464E-1,1.9410506E-1,6.428572E-1,3.9489895E-2,9.987593E-1,-1.6305507E-3,2.2516076E-1,7.149727E-1,-4.1271467E-3,1.7575711E-3,-3.881285E-4,5.63749E-3,2.1581903E-4,-1.8037686E-3,-2.5382086E-3,-6.305556E-3,4.2051953E-4,-1.1859101E-3,4.6584647E-4,-2.600628E-3,-1.01546204E-4,8.753107E-4,-2.0504855E-3,2.7131423E-4,-8.385425E-3,-3.305426E-3,-1.194482E-3,1.5665224E-5,1.631058E-4,-2.0072188E-3,5.598328E-3,1.3734517E-3,-3.0469664E-3,4.576779E-4,-4.9134535E-3,-1.16059575E-2,6.113196E-4,-3.798796E-4,5.162323E-4,1.0572335E-3],"split_indices":[12,3,10,12,2,7,0,12,13,7,14,0,6,0,1,2,13,14,14,1,12,12,6,3,1,11,12,12,2,6,7,2,14,1,13,3,0,12,12,0,0,0,0,0,0,0,0,0,0,0,0,0,0,0,0,0,0,0,0,0,0,0,0,0,0,0,0,0,0,0,0],"split_type":[0,0,0,0,0,0,0,0,0,0,0,0,0,0,0,0,0,0,0,0,0,0,0,0,0,0,0,0,0,0,0,0,0,0,0,0,0,0,0,0,0,0,0,0,0,0,0,0,0,0,0,0,0,0,0,0,0,0,0,0,0,0,0,0,0,0,0,0,0,0,0],"sum_hessian":[2E3,1.553E3,4.47E2,1.17E2,1.436E3,4.45E2,2E0,7.8E1,3.9E1,1.407E3,2.9E1,1E0,4.44E2,5E0,7.3E1,2.2E1,1.7E1,4.1E1,1.366E3,2.2E1,7E0,4.39E2,5E0,3E0,7E1,1.9E1,3E0,1.4E1,3E0,2.8E1,1.3E1,1.016E3,3.5E2,2E0,2E1,6E0,1E0,3.52E2,8.7E1,4E0,1E0,1E0,2E0,1.2E1,5.8E1,7E0,1.2E1,1E0,2E0,2E0,1.2E1,1E0,2E0,1.6E1,1.2E1,4E0,9E0,7.37E2,2.79E2,3.15E2,3.5E1,1E0,1E0,1.3E1,7E0,3E0,3E0,1.57E2,1.95E2,2.9E1,5.8E1],"tree_param":{"num_deleted":"0","num_feature":"15","num_nodes":"71","size_leaf_vector":"0"}},{"base_weights":[-1.5613383E-3,-2.0865826E-3,3.9714464E-4,-5.2946047E-3,-1.8472894E-3,-1.116602E-2,7.034192E-4,-4.1096173E-3,-1.3729157E-2,-8.776777E-3,-1.7262074E-3,-4.1714525E-3,-1.872521E-2,5.2371966E-3,3.2278133E-4,-4.6903044E-3,4.0264004E-3,-4.5467876E-3,-1.6029188E-2,-3.2428137E-3,-3.0264068E-2,-1.5866151E-3,-8.046741E-3,-6.059942E-3,3.6651394E-4,-4.402131E-3,-2.6806554E-2,6.7654457E-3,-7.1519073E-3,-2.545949E-3,1.1495868E-3,-9.0631447E-4,-5.743452E-3,-3.4758216E-4,7.393783E-3,-6.9111586E-3,-1.8949607E-2,-5.266828E-3,4.287398E-3,-3.1093543E-3,-9.260297E-4,1.5682502E-3,-1.5078027E-2,1.571402E-3,-1.0216311E-3,5.6775277E-3,1.8613577E-2,-2.0370914E-3,-2.289942E-2,-3.5012485E-3,1.3569689E-3,4.7231778E-3,-1.0644637E-2,-8.365219E-3,-3.5024513E-3,1.2457622E-3,-1.2939511E-3,1.0082158E-3,-7.275166E-3,7.4458322E-3,-3.00169E-4,-2.7111343E-3,-1.1097487E-2,-3.1967573E-3,5.893476E-4,1.3168917E-2,-1.4626039E-3,-2.5282672E-2,-9.208342E-3,3.938115E-3,-2.7090365E-3,-4.508258E-3,-9.883821E-4,1.4814714E-3,-4.7000623E-3],"categories":[],"categories_nodes":[],"categories_segments":[],"categories_sizes":[],"default_left":[1,1,1,1,1,1,1,1,1,1,1,1,1,1,1,1,1,0,1,1,0,1,1,0,1,0,0,1,0,1,1,1,1,1,0,0,0,1,1,1,1,1,1,0,0,0,0,1,0,1,1,0,0,0,0,0,0,0,0,0,0,0,0,0,0,0,0,0,0,0,0,0,0,0,0],"id":15,"left_children":[1,3,5,7,9,11,13,15,17,19,21,23,25,27,29,31,33,-1,35,37,-1,39,41,-1,43,-1,-1,45,-1,47,49,51,53,55,-1,-1,-1,57,59,61,63,65,67,-1,-1,-1,-1,69,-1,71,73,-1,-1,-1,-1,-1,-1,-1,-1,-1,-1,-1,-1,-1,-1,-1,-1,-1,-1,-1,-1,-1,-1,-1,-1],"loss_changes":[2.0592213E-3,1.201584E-3,1.5094517E-3,1.0330158E-3,1.2182319E-3,5.0349464E-4,7.1276067E-4,4.771595E-4,2.0167534E-4,2.8746063E-3,1.2630359E-3,6.221036E-5,4.607425E-4,6.542622E-4,9.113576E-4,3.574388E-4,1.0567206E-4,0E0,1.3532094E-4,3.4264734E-4,0E0,1.4214739E-3,2.1194245E-3,0E0,6.6230705E-6,0E0,0E0,2.6812498E-4,0E0,8.440552E-4,2.9217204E-4,1.2015346E-3,3.8785324E-4,7.643522E-6,0E0,0E0,0E0,2.2157593E-4,7.468265E-5,1.3313964E-3,3.405042E-3,5.1149994E-4,8.453536E-4,0E0,0E0,0E0,0E0,3.5194439E-4,0E0,2.8440365E-5,2.2264011E-4,0E0,0E0,0E0,0E0,0E0,0E0,0E0,0E0,0E0,0E0,0E0,0E0,0E0,0E0,0E0,0E0,0E0,0E0,0E0,0E0,0E0,0E0,0E0,0E0],"parents":[2147483647,0,0,1,1,2,2,3,3,4,4,5,5,6,6,7,7,8,8,9,9,10,10,11,11,12,12,13,13,14,14,15,15,16,16,18,18,19,19,21,21,22,22,24,24,27,27,29,29,30,30,31,31,32,32,33,33,37,37,38,38,39,39,40,40,41,41,42,42,47,47,49,49,50,50],"right_children":[2,4,6,8,10,12,14,16,18,20,22,24,26,28,30,32,34,-1,36,38,-1,40,42,-1,44,-1,-1,46,-1,48,50,52,54,56,-1,-1,-1,58,60,62,64,66,68,-1,-1,-1,-1,70,-1,72,74,-1,-1,-1,-1,-1,-1,-1,-1,-1,-1,-1,-1,-1,-1,-1,-1,-1,-1,-1,-1,-1,-1,-1,-1],"split_conditions":[1.06635354E-1,9.8833746E-1,7.8983314E-4,6.7779385E-2,6.9648755E-1,1.774546E-1,1.13126904E-1,9.719603E-1,1.0052794E-1,1.8754524E-1,9.744417E-1,7.015338E-4,8.100852E-6,5.0040424E-1,5.0040424E-1,8.5714287E-1,3.7694715E-2,-1.3640363E-3,5.0040424E-1,1.0361427E-1,-9.079221E-3,4.2967007E-2,9.329268E-2,-1.8179826E-3,2.2682387E-5,-1.3206393E-3,-8.041967E-3,2.5283774E-2,-2.1455723E-3,9.736973E-1,9.904454E-1,7.1428575E-2,9.491315E-1,9.751861E-1,2.218135E-3,-2.0733476E-3,-5.6848824E-3,4.6413494E-3,4.71464E-1,3.4473054E-2,8.5714287E-1,8.5714287E-1,6.0929686E-2,4.7142062E-4,-3.0648932E-4,1.7032584E-3,5.5840733E-3,1.6572645E-1,-6.869826E-3,3.5342705E-1,3.1820198E-7,1.4169534E-3,-3.1933913E-3,-2.509566E-3,-1.0507355E-3,3.737287E-4,-3.8818535E-4,3.0246476E-4,-2.1825498E-3,2.2337497E-3,-9.00507E-5,-8.133403E-4,-3.3292463E-3,-9.590272E-4,1.7680429E-4,3.9506755E-3,-4.387812E-4,-7.584802E-3,-2.7625028E-3,1.1814346E-3,-8.1271096E-4,-1.3524774E-3,-2.9651466E-4,4.4444142E-4,-1.4100188E-3],"split_indices":[13,3,11,12,7,13,13,2,14,14,2,11,10,11,11,1,14,0,11,14,0,14,14,0,10,0,0,6,0,2,7,0,2,2,0,0,0,12,2,12,1,1,12,0,0,0,0,13,0,12,8,0,0,0,0,0,0,0,0,0,0,0,0,0,0,0,0,0,0,0,0,0,0,0,0],"split_type":[0,0,0,0,0,0,0,0,0,0,0,0,0,0,0,0,0,0,0,0,0,0,0,0,0,0,0,0,0,0,0,0,0,0,0,0,0,0,0,0,0,0,0,0,0,0,0,0,0,0,0,0,0,0,0,0,0,0,0,0,0,0,0,0,0,0,0,0,0,0,0,0,0,0,0],"sum_hessian":[2E3,1.577E3,4.23E2,1.08E2,1.469E3,1E1,4.13E2,9.6E1,1.2E1,2.4E1,1.445E3,6E0,4E0,3.1E1,3.82E2,9E1,6E0,3E0,9E0,2E1,4E0,1.415E3,3E1,4E0,2E0,2E0,2E0,2.8E1,3E0,8.5E1,2.97E2,2E1,7E1,3E0,3E0,3E0,6E0,1.6E1,4E0,4.27E2,9.88E2,1.3E1,1.7E1,1E0,1E0,2.7E1,1E0,8.4E1,1E0,1.2E1,2.85E2,1.3E1,7E0,3.1E1,3.9E1,1E0,2E0,4E0,1.2E1,2E0,2E0,4.08E2,1.9E1,3.95E2,5.93E2,2E0,1.1E1,5E0,1.2E1,8E0,7.6E1,8E0,4E0,2.8E2,5E0],"tree_param":{"num_deleted":"0","num_feature":"15","num_nodes":"75","size_leaf_vector":"0"}},{"base_weights":[-1.1168352E-3,-9.3592604E-4,-4.736593E-3,-5.167653E-3,-8.12167E-4,-5.9351726E-3,-7.2646554E-4,-6.15899E-3,5.7792463E-3,-2.5276188E-3,-4.7541043E-4,-7.2763734E-3,-7.023709E-4,-2.2342775E-3,1.0070373E-2,-7.980167E-4,-7.6505975E-3,1.0225383E-2,-6.0026497E-3,-2.0391482E-3,-5.2937227E-3,-2.912724E-4,-4.6806084E-3,-5.131009E-3,-1.3652449E-2,-1.8083259E-3,3.0675754E-3,-4.421715E-3,1.5627606E-4,-1.9221285E-3,5.7836063E-3,-1.7302245E-2,-6.3656755E-3,-3.1828498E-3,-7.393927E-4,5.0216727E-4,-6.0307635E-3,-3.2484857E-3,-9.8432225E-5,-1.1468767E-2,2.2493869E-3,-3.0613756E-3,-9.99E-3,-2.8298497E-3,-1.5220393E-2,-2.2849604E-3,5.421092E-4,4.350642E-3,-3.9081275E-4,-4.727631E-3,-6.812785E-4,-7.965855E-3,1.7650747E-3,-2.847221E-3,-9.867584E-4,-1.0652367E-2,-3.1535819E-3,-4.494192E-3,-1.9536517E-3,-3.94962E-3,-1.872844E-4,-2.146408E-3,2.3630569E-3,-7.4369246E-3,-4.404383E-3,4.1792635E-3,-4.322042E-3,1.5761866E-3,-5.1774783E-4,-1.3013168E-2,2.981434E-3,-3.963985E-6,1.0619543E-2,-7.093628E-3,-8.573024E-5,-3.947188E-3,-1.3273358E-2,-3.0248538E-3,-1.6054092E-2,-2.9316884E-3,-9.2254876E-4,3.1849146E-3,-2.3717508E-3,3.2093846E-3,-1.2037364E-3],"categories":[],"categories_nodes":[],"categories_segments":[],"categories_sizes":[],"default_left":[1,1,1,1,1,1,1,1,1,1,1,1,1,1,0,1,1,0,0,1,1,1,1,1,1,1,1,1,1,1,0,0,1,1,1,1,1,1,1,1,1,1,1,0,1,1,1,0,0,0,0,0,1,0,0,0,0,0,0,0,0,0,0,0,0,0,0,0,0,0,0,0,0,0,0,0,0,0,0,0,0,0,0,0,0],"id":16,"left_children":[1,3,5,7,9,11,13,15,17,19,21,23,25,27,-1,29,31,-1,-1,33,35,37,39,41,43,45,47,49,51,53,-1,-1,55,57,59,61,63,65,67,69,71,73,75,-1,77,79,81,-1,-1,-1,-1,-1,83,-1,-1,-1,-1,-1,-1,-1,-1,-1,-1,-1,-1,-1,-1,-1,-1,-1,-1,-1,-1,-1,-1,-1,-1,-1,-1,-1,-1,-1,-1,-1,-1],"loss_changes":[1.3059163E-3,9.945262E-4,4.5230193E-4,6.216058E-4,1.069835E-3,5.072206E-4,3.9693087E-4,3.9371813E-4,3.23299E-4,3.99958E-4,1.1996332E-3,7.233317E-4,7.2257426E-5,1.1050392E-4,0E0,9.989859E-5,3.7352229E-4,0E0,0E0,3.8414495E-4,1.952597E-4,8.4767095E-4,3.083522E-3,4.2195152E-4,1.9449787E-4,1.5802576E-5,1.944966E-5,9.36602E-6,1.5779595E-4,6.708822E-6,0E0,0E0,4.6210014E-4,2.1366216E-4,2.1726465E-4,3.4644323E-5,5.872303E-5,7.437067E-4,9.817809E-4,7.7525526E-4,6.224517E-4,3.953441E-4,2.0553696E-4,0E0,7.344782E-5,6.987586E-6,3.065612E-5,0E0,0E0,0E0,0E0,0E0,4.674209E-5,0E0,0E0,0E0,0E0,0E0,0E0,0E0,0E0,0E0,0E0,0E0,0E0,0E0,0E0,0E0,0E0,0E0,0E0,0E0,0E0,0E0,0E0,0E0,0E0,0E0,0E0,0E0,0E0,0E0,0E0,0E0,0E0],"parents":[2147483647,0,0,1,1,2,2,3,3,4,4,5,5,6,6,7,7,8,8,9,9,10,10,11,11,12,12,13,13,15,15,16,16,19,19,20,20,21,21,22,22,23,23,24,24,25,25,26,26,27,27,28,28,29,29,32,32,33,33,34,34,35,35,36,36,37,37,38,38,39,39,40,40,41,41,42,42,44,44,45,45,46,46,52,52],"right_children":[2,4,6,8,10,12,14,16,18,20,22,24,26,28,-1,30,32,-1,-1,34,36,38,40,42,44,46,48,50,52,54,-1,-1,56,58,60,62,64,66,68,70,72,74,76,-1,78,80,82,-1,-1,-1,-1,-1,84,-1,-1,-1,-1,-1,-1,-1,-1,-1,-1,-1,-1,-1,-1,-1,-1,-1,-1,-1,-1,-1,-1,-1,-1,-1,-1,-1,-1,-1,-1,-1,-1],"split_conditions":[4.6499956E-1,9.490653E-1,8.70785E-1,3.7577534E-1,2.0887848E-2,2.1371889E-1,7.176557E-2,8.396955E-3,7.2244424E-1,8.341832E-3,7.1428575E-2,1.8516833E-1,2.7799958E-1,1.8387041E-3,3.0211122E-3,5.8316395E-2,3.364212E-2,3.067615E-3,-1.800795E-3,5.399017E-3,9.905707E-1,9.8833746E-1,3.0313537E-2,7.901505E-1,9.7342455E-1,6.1993486E-1,5.145277E-1,9.441687E-1,8.905551E-1,1.2606045E-4,1.735082E-3,-5.1906737E-3,1.573054E-2,4.71464E-1,6.209507E-4,1.3678692E-2,1.4304113E-2,8.5714287E-1,1.1234452E-1,9.44665E-1,2.1428573E-1,5.7243943E-1,6.231597E-2,-8.4895495E-4,5.5048776E-1,2.3184216E-1,6.34884E-1,1.3051927E-3,-1.1724383E-4,-1.4182893E-3,-2.0438357E-4,-2.3897567E-3,9.557854E-1,-8.5416634E-4,-2.9602752E-4,-3.1957102E-3,-9.460746E-4,-1.3482576E-3,-5.860955E-4,-1.184886E-3,-5.6185323E-5,-6.439224E-4,7.089171E-4,-2.2310775E-3,-1.3213148E-3,1.253779E-3,-1.2966127E-3,4.7285602E-4,-1.5532435E-4,-3.9039506E-3,8.9443027E-4,-1.1891955E-6,3.185863E-3,-2.1280884E-3,-2.5719071E-5,-1.1841565E-3,-3.9820075E-3,-9.0745615E-4,-4.8162276E-3,-8.795066E-4,-2.7676465E-4,9.554744E-4,-7.1152527E-4,9.628154E-4,-3.6112094E-4],"split_indices":[6,7,6,6,14,14,14,12,7,12,0,14,12,12,0,14,6,0,0,14,3,3,13,6,7,6,6,2,6,13,0,0,13,2,12,12,14,1,14,2,0,6,14,0,6,13,6,0,0,0,0,0,6,0,0,0,0,0,0,0,0,0,0,0,0,0,0,0,0,0,0,0,0,0,0,0,0,0,0,0,0,0,0,0,0],"split_type":[0,0,0,0,0,0,0,0,0,0,0,0,0,0,0,0,0,0,0,0,0,0,0,0,0,0,0,0,0,0,0,0,0,0,0,0,0,0,0,0,0,0,0,0,0,0,0,0,0,0,0,0,0,0,0,0,0,0,0,0,0,0,0,0,0,0,0,0,0,0,0,0,0,0,0,0,0,0,0,0,0,0,0,0,0],"sum_hessian":[2E3,1.906E3,9.4E1,5.3E1,1.853E3,7.2E1,2.2E1,4.9E1,4E0,3.03E2,1.55E3,5.7E1,1.5E1,2E1,2E0,1.1E1,3.8E1,3E0,1E0,2.59E2,4.4E1,1.486E3,6.4E1,4.4E1,1.3E1,1.2E1,3E0,1E1,1E1,1E1,1E0,3E0,3.5E1,1.37E2,1.22E2,5E0,3.9E1,9E1,1.396E3,3.2E1,3.2E1,3.2E1,1.2E1,2E0,1.1E1,1E1,2E0,2E0,1E0,9E0,1E0,1E0,9E0,4E0,6E0,1.4E1,2.1E1,6.5E1,7.2E1,1.7E1,1.05E2,2E0,3E0,1.9E1,2E1,1.1E1,7.9E1,2.79E2,1.117E3,2.9E1,3E0,2.6E1,6E0,1.3E1,1.9E1,5E0,7E0,1E0,1E1,6E0,4E0,1E0,1E0,6E0,3E0],"tree_param":{"num_deleted":"0","num_feature":"15","num_nodes":"85","size_leaf_vector":"0"}},{"base_weights":[-7.956255E-4,-1.0725321E-3,9.462417E-4,-9.927257E-4,-6.941983E-3,1.1876979E-3,-2.1341681E-2,-8.4288535E-4,-3.838592E-3,-1.4416015E-4,-1.9669881E-2,9.4570796E-4,3.4502286E-3,-5.965393E-4,-2.4952553E-3,-1.7480109E-3,-6.0395077E-3,-4.097224E-3,7.127151E-3,-2.819318E-2,-8.9172665E-3,2.85815E-3,6.3887663E-4,6.648794E-3,2.3720562E-3,-7.9095166E-4,4.6071107E-3,-1.3209686E-3,-9.778874E-3,-2.930985E-3,1.111022E-2,-1.1604409E-2,-3.6122305E-3,-1.7020428E-4,-1.0926958E-2,1.365016E-2,3.0925167E-3,-1.0752417E-2,-7.8833103E-4,1.5731927E-4,2.3110174E-3,1.220353E-3,7.4904114E-3,3.4288142E-3,8.6674094E-4,-1.9854743E-3,-3.1990648E-4,6.4814826E-3,-1.3933405E-2,-2.5570034E-3,3.1308802E-3,-6.1774445E-3,-2.0215161E-2,-1.8519142E-3,-8.06178E-3,5.7298876E-3,-1.3701153E-2,5.893022E-3,-4.501642E-3,-2.3909379E-3,2.6482637E-3,-1.4792711E-2,3.3514947E-4,3.923171E-3,1.2310235E-3,-4.9996823E-3,3.1358568E-4,2.1001697E-4,2.351251E-3,1.2423098E-3,7.491246E-3,1.20119E-3,-3.14037E-4],"categories":[],"categories_nodes":[],"categories_segments":[],"categories_sizes":[],"default_left":[1,1,1,1,1,1,0,1,1,1,1,1,1,1,1,1,1,1,1,0,1,0,1,1,1,1,1,1,1,1,0,1,1,1,1,0,1,0,0,1,1,0,0,1,1,0,0,0,0,0,0,0,0,0,0,0,0,0,0,0,0,0,0,0,0,0,0,0,0,0,0,0,0],"id":17,"left_children":[1,3,5,7,9,11,-1,13,15,17,19,21,23,25,27,29,31,33,35,-1,37,-1,39,41,43,45,47,49,51,53,-1,55,57,59,61,-1,63,-1,-1,65,67,-1,-1,69,71,-1,-1,-1,-1,-1,-1,-1,-1,-1,-1,-1,-1,-1,-1,-1,-1,-1,-1,-1,-1,-1,-1,-1,-1,-1,-1,-1,-1],"loss_changes":[9.661665E-4,8.0206944E-4,1.5052754E-3,7.238205E-4,1.9871704E-3,1.4620723E-4,0E0,6.583473E-4,3.8054434E-4,4.8910483E-4,4.8177573E-4,1.4369973E-4,7.3892385E-5,1.4320991E-3,1.7832245E-3,7.170568E-4,5.11892E-4,2.9316568E-4,1.1569436E-4,0E0,6.611264E-5,4.977919E-7,1.7276124E-4,1.8271094E-5,3.0433941E-5,7.65727E-4,1.8626518E-3,1.0094861E-3,9.6510304E-4,2.1760285E-4,0E0,5.1465293E-4,2.801507E-4,5.6404362E-5,1.7910384E-4,0E0,2.901772E-6,0E0,0E0,1.3695333E-4,3.5636767E-6,0E0,0E0,9.728386E-5,4.3263194E-6,0E0,0E0,0E0,0E0,0E0,0E0,0E0,0E0,0E0,0E0,0E0,0E0,0E0,0E0,0E0,0E0,0E0,0E0,0E0,0E0,0E0,0E0,0E0,0E0,0E0,0E0,0E0,0E0],"parents":[2147483647,0,0,1,1,2,2,3,3,4,4,5,5,7,7,8,8,9,9,10,10,11,11,12,12,13,13,14,14,15,15,16,16,17,17,18,18,20,20,22,22,23,23,24,24,25,25,26,26,27,27,28,28,29,29,31,31,32,32,33,33,34,34,36,36,39,39,40,40,43,43,44,44],"right_children":[2,4,6,8,10,12,-1,14,16,18,20,22,24,26,28,30,32,34,36,-1,38,-1,40,42,44,46,48,50,52,54,-1,56,58,60,62,-1,64,-1,-1,66,68,-1,-1,70,72,-1,-1,-1,-1,-1,-1,-1,-1,-1,-1,-1,-1,-1,-1,-1,-1,-1,-1,-1,-1,-1,-1,-1,-1,-1,-1,-1,-1],"split_conditions":[1.6877528E-1,9.816377E-1,8.100852E-6,4.6499956E-1,1.868025E-1,9.526055E-1,-6.4025046E-3,7.371776E-5,9.645413E-2,9.895781E-1,5.0040424E-1,1.909418E-1,3.617587E-1,3.402358E-5,1.7315373E-2,7.706852E-2,4.554507E-2,9.329268E-2,7.8571427E-1,-8.457954E-3,9.9975187E-1,8.5744506E-4,8.90716E-1,1.8886949E-1,9.987593E-1,1.564728E-2,6.720975E-2,2.8818082E-2,4.71464E-1,6.4691715E-2,3.3330661E-3,1.3465039E-4,5.0924882E-2,6.0079217E-2,9.9478906E-1,4.095048E-3,1.47669455E-2,-3.2257254E-3,-2.3649931E-4,2.3184216E-1,9.9975187E-1,3.661059E-4,2.2471235E-3,9.9776673E-1,8.573677E-1,-5.956423E-4,-9.597195E-5,1.9444448E-3,-4.1800216E-3,-7.6710107E-4,9.392641E-4,-1.8532334E-3,-6.0645486E-3,-5.555743E-4,-2.418534E-3,1.7189664E-3,-4.110346E-3,1.7679066E-3,-1.3504927E-3,-7.1728136E-4,7.9447916E-4,-4.4378135E-3,1.0054484E-4,1.1769515E-3,3.6930706E-4,-1.4999048E-3,9.407571E-5,6.300509E-5,7.0537534E-4,3.7269297E-4,2.2473738E-3,3.6035702E-4,-9.42111E-5],"split_indices":[13,2,10,6,14,2,0,10,14,2,11,12,12,10,13,14,12,14,1,0,3,0,12,12,3,12,12,14,2,14,0,13,12,14,3,0,12,0,0,12,3,0,0,3,12,0,0,0,0,0,0,0,0,0,0,0,0,0,0,0,0,0,0,0,0,0,0,0,0,0,0,0,0],"split_type":[0,0,0,0,0,0,0,0,0,0,0,0,0,0,0,0,0,0,0,0,0,0,0,0,0,0,0,0,0,0,0,0,0,0,0,0,0,0,0,0,0,0,0,0,0,0,0,0,0,0,0,0,0,0,0,0,0,0,0,0,0,0,0,0,0,0,0,0,0,0,0,0,0],"sum_hessian":[2E3,1.726E3,2.74E2,1.704E3,2.2E1,2.72E2,2E0,1.62E3,8.4E1,1.5E1,7E0,2.47E2,2.5E1,1.411E3,2.09E2,4.4E1,4E1,1E1,5E0,3E0,4E0,3.3E1,2.14E2,5E0,2E1,1.361E3,5E1,1.81E2,2.8E1,4.1E1,3E0,1.1E1,2.9E1,7E0,3E0,1E0,4E0,3E0,1E0,1.67E2,4.7E1,1E0,4E0,1.1E1,9E0,3.84E2,9.77E2,4.6E1,4E0,1.42E2,3.9E1,2.2E1,6E0,3.5E1,6E0,1E0,1E1,2E0,2.7E1,4E0,3E0,2E0,1E0,2E0,2E0,4E0,1.63E2,1E0,4.6E1,8E0,3E0,7E0,2E0],"tree_param":{"num_deleted":"0","num_feature":"15","num_nodes":"73","size_leaf_vector":"0"}},{"base_weights":[-5.686882E-4,-3.9425744E-3,-4.8374757E-4,-5.397123E-4,-8.849739E-3,-2.4349212E-4,-1.6689493E-3,-7.6560737E-3,2.4203042E-4,-1.6870648E-2,-5.7900967E-3,-1.4016429E-3,1.2708818E-4,-8.9967554E-4,-1.3509245E-2,-8.252817E-4,-1.0658829E-2,-1.8607029E-3,3.2007333E-3,-2.1217156E-2,2.5769323E-4,-3.4945793E-3,-1.0141319E-2,-8.968468E-4,-6.8966295E-3,2.889946E-4,-9.698892E-3,1.7120473E-3,-3.0326669E-3,-2.1318475E-2,-1.5959111E-3,2.8482548E-4,-4.9664327E-3,8.343941E-3,5.592265E-4,-2.6945159E-2,-2.0165741E-3,-4.3019922E-3,2.6934817E-3,-1.256403E-2,-2.2523664E-4,2.7414153E-5,-2.6494649E-3,-1.4378629E-2,-1.3143986E-3,2.3422333E-5,5.8800722E-3,-2.6805731E-3,-1.7978996E-2,-8.80638E-4,8.215777E-3,-1.3107515E-3,-5.3820955E-3,-2.236617E-2,-4.896909E-3,-4.466939E-3,1.5942991E-3,-1.8702189E-3,1.7834535E-3,-2.599731E-4,-5.707514E-3,-8.43263E-3,2.7372874E-3,-4.9030213E-3,8.5414946E-4,-4.300061E-4,8.677996E-3,-3.7978229E-3,8.066319E-4,6.300737E-4,-2.96261E-3,1.605606E-2,-7.393403E-5,1.1284218E-2,-7.997796E-3,-5.55561E-3,1.1203991E-3,-2.6540842E-3,1.3852969E-3,1.07512595E-2,-1.7121376E-3,-2.6609567E-3,2.0866804E-3,-3.3529408E-3,-1.4333418E-2,-9.128218E-3,-2.429369E-2,-9.320676E-5,4.172161E-3],"categories":[],"categories_nodes":[],"categories_segments":[],"categories_sizes":[],"default_left":[1,1,1,1,1,1,1,1,1,1,1,1,1,1,1,0,0,1,1,1,0,1,1,1,1,1,1,1,1,1,1,1,1,0,1,0,0,1,0,0,0,1,1,0,1,1,1,1,0,1,1,1,1,1,0,0,1,0,0,0,0,0,0,0,0,0,0,0,0,0,0,0,0,0,0,0,0,0,0,0,0,0,0,0,0,0,0,0,0],"id":18,"left_children":[1,3,5,7,9,11,13,15,17,19,21,23,25,27,29,-1,-1,31,33,35,-1,37,39,41,43,45,47,49,51,53,55,57,59,-1,61,-1,-1,63,-1,-1,-1,65,67,-1,69,71,73,75,-1,77,79,81,83,85,-1,-1,87,-1,-1,-1,-1,-1,-1,-1,-1,-1,-1,-1,-1,-1,-1,-1,-1,-1,-1,-1,-1,-1,-1,-1,-1,-1,-1,-1,-1,-1,-1,-1,-1],"loss_changes":[5.715396E-4,8.134456E-4,5.557126E-4,1.6874791E-4,3.9313943E-4,6.976084E-4,2.9845191E-3,5.2737043E-5,1.8015379E-4,3.7770998E-4,1.2437318E-4,1.0867107E-3,1.9627786E-3,1.7321345E-3,1.8266565E-3,0E0,0E0,1.14692906E-4,1.5836366E-4,3.8558722E-4,0E0,7.154318E-5,1.17289135E-4,5.8646797E-4,1.3593868E-3,1.8009675E-3,1.114054E-3,2.3679326E-3,6.8472873E-4,9.693252E-5,8.955428E-5,3.886116E-5,2.2931272E-5,0E0,1.9934586E-4,0E0,0E0,3.8276834E-5,0E0,0E0,0E0,9.45486E-4,4.99168E-4,0E0,6.596469E-5,1.8102464E-3,4.2151404E-3,1.3735973E-4,0E0,4.095466E-4,1.0252898E-3,4.6427565E-4,1.2597213E-3,5.892245E-5,0E0,0E0,2.2139662E-5,0E0,0E0,0E0,0E0,0E0,0E0,0E0,0E0,0E0,0E0,0E0,0E0,0E0,0E0,0E0,0E0,0E0,0E0,0E0,0E0,0E0,0E0,0E0,0E0,0E0,0E0,0E0,0E0,0E0,0E0,0E0,0E0],"parents":[2147483647,0,0,1,1,2,2,3,3,4,4,5,5,6,6,7,7,8,8,9,9,10,10,11,11,12,12,13,13,14,14,17,17,18,18,19,19,21,21,22,22,23,23,24,24,25,25,26,26,27,27,28,28,29,29,30,30,31,31,32,32,34,34,37,37,41,41,42,42,44,44,45,45,46,46,47,47,49,49,50,50,51,51,52,52,53,53,56,56],"right_children":[2,4,6,8,10,12,14,16,18,20,22,24,26,28,30,-1,-1,32,34,36,-1,38,40,42,44,46,48,50,52,54,56,58,60,-1,62,-1,-1,64,-1,-1,-1,66,68,-1,70,72,74,76,-1,78,80,82,84,86,-1,-1,88,-1,-1,-1,-1,-1,-1,-1,-1,-1,-1,-1,-1,-1,-1,-1,-1,-1,-1,-1,-1,-1,-1,-1,-1,-1,-1,-1,-1,-1,-1,-1,-1],"split_conditions":[8.2765985E-1,1.4859681E-1,8.100852E-7,3.5320423E-5,5.4694015E-1,1.665422E-2,1.8714377E-1,1.0477723E-1,7.55263E-2,9.4342434E-1,3.2429945E-1,6.5470138E-3,3.5002217E-6,5.000188E-1,2.7219015E-1,-2.4758454E-4,-3.1976488E-3,8.396955E-3,3.106464E-2,2.3300868E-1,7.7307974E-5,8.0124056E-1,9.503722E-1,9.3640536E-2,8.5714287E-1,3.1820198E-7,3.0497123E-2,5.4706773E-3,4.71464E-1,2.0864401E-2,6.9262285E-4,1.0084836E-3,1.3524257E-1,2.5031823E-3,3.4655582E-2,-8.083548E-3,-6.0497224E-4,3.033936E-1,8.0804457E-4,-3.769209E-3,-6.7570996E-5,5.9834294E-2,1.145674E-2,-4.3135886E-3,8.036243E-3,5E-1,4.7484793E-2,2.8793123E-2,-5.393699E-3,1.1596082E-3,1.2392057E-1,5.2309506E-2,1.6211325E-2,1.6344137E-3,-1.4690728E-3,-1.3400817E-3,4.0504265E-6,-5.610657E-4,5.350361E-4,-7.7991936E-5,-1.7122542E-3,-2.5297892E-3,8.211863E-4,-1.4709064E-3,2.5624485E-4,-1.2900184E-4,2.6033989E-3,-1.1393469E-3,2.4198959E-4,1.8902212E-4,-8.88783E-4,4.8168185E-3,-2.2180211E-5,3.3852656E-3,-2.3993389E-3,-1.6666831E-3,3.3611973E-4,-7.9622533E-4,4.155891E-4,3.225378E-3,-5.136413E-4,-7.9828704E-4,6.260041E-4,-1.0058823E-3,-4.3000253E-3,-2.7384653E-3,-7.2881076E-3,-2.796203E-5,1.2516484E-3],"split_indices":[7,14,10,9,7,12,14,6,14,2,6,13,8,9,14,0,0,12,12,12,0,7,2,14,1,8,12,12,2,6,11,12,6,0,12,0,0,6,0,0,0,14,12,0,13,1,13,14,0,12,14,14,13,13,0,0,10,0,0,0,0,0,0,0,0,0,0,0,0,0,0,0,0,0,0,0,0,0,0,0,0,0,0,0,0,0,0,0,0],"split_type":[0,0,0,0,0,0,0,0,0,0,0,0,0,0,0,0,0,0,0,0,0,0,0,0,0,0,0,0,0,0,0,0,0,0,0,0,0,0,0,0,0,0,0,0,0,0,0,0,0,0,0,0,0,0,0,0,0,0,0,0,0,0,0,0,0,0,0,0,0,0,0,0,0,0,0,0,0,0,0,0,0,0,0,0,0,0,0,0,0],"sum_hessian":[2E3,4.8E1,1.952E3,2.9E1,1.9E1,1.624E3,3.28E2,2E0,2.7E1,4E0,1.5E1,3.93E2,1.231E3,3.09E2,1.9E1,1E0,1E0,1.6E1,1.1E1,3E0,1E0,1.1E1,4E0,3.61E2,3.2E1,1.212E3,1.9E1,1.39E2,1.7E2,1.1E1,8E0,1E1,6E0,3E0,8E0,2E0,1E0,1E1,1E0,3E0,1E0,2.37E2,1.24E2,1.3E1,1.9E1,1.158E3,5.4E1,1.1E1,8E0,1E2,3.9E1,9.9E1,7.1E1,1E1,1E0,4E0,4E0,4E0,6E0,1E0,5E0,1E0,7E0,9E0,1E0,2.26E2,1.1E1,9.3E1,3.1E1,9E0,1E1,6E0,1.152E3,3.9E1,1.5E1,6E0,5E0,5.6E1,4.4E1,3.1E1,8E0,7.1E1,2.8E1,5.9E1,1.2E1,2E0,8E0,3E0,1E0],"tree_param":{"num_deleted":"0","num_feature":"15","num_nodes":"89","size_leaf_vector":"0"}},{"base_weights":[-4.1630617E-4,-2.3711158E-3,-2.914425E-4,-8.780962E-4,-4.9300115E-3,-3.382935E-4,5.1937005E-3,-2.5433453E-3,3.1421995E-3,-6.37275E-3,-2.2455373E-5,-2.6330157E-4,-3.1746896E-3,6.8550976E-4,6.639305E-3,-1.4276223E-3,-6.4223846E-3,9.615585E-3,-9.513116E-4,6.5676346E-3,-6.9639017E-3,-3.2889755E-3,2.313981E-3,-4.599663E-4,3.0884473E-3,-5.330073E-3,2.4405324E-3,7.990077E-3,3.956854E-3,-4.2668145E-4,-7.6958006E-3,-8.954527E-3,-1.0864811E-3,3.0192765E-3,1.4288777E-2,-3.5074046E-3,3.4673952E-3,-5.1211314E-3,-9.761989E-3,-5.7084364E-4,-4.910782E-3,-2.058819E-4,5.7424256E-3,-1.590713E-3,-2.0975061E-5,1.5310054E-2,9.457742E-4,-9.045772E-4,-1.274979E-2,5.0931894E-3,-1.8560886E-4,3.1794175E-3,-1.0505024E-3,-8.847504E-3,-9.6864277E-4,-5.0729048E-3,-1.1567921E-2,-2.4909556E-3,2.2657085E-3,4.054462E-3,-5.6073256E-4,1.8707227E-2,5.1073995E-3,-5.719857E-4,-4.169761E-3,4.7659255E-3,-1.512628E-3,-6.5675513E-3,6.22871E-3,-1.1116057E-2,-4.2748395E-3,1.9744784E-4,-1.0537133E-3,-7.3954277E-4,9.643808E-4,-2.6424918E-3,4.6224818E-3,1.0021445E-3,-1.2610826E-3,2.5047192E-2,6.037253E-4,-3.8816836E-3,2.540597E-3,-3.206417E-3,6.1517046E-3,-5.9909867E-3,-1.9636564E-2,2.7156137E-3,6.1974674E-3,-5.9367716E-3,1.484096E-3],"categories":[],"categories_nodes":[],"categories_segments":[],"categories_sizes":[],"default_left":[1,1,1,1,1,1,1,1,1,1,1,1,1,0,1,1,1,1,1,0,1,1,1,1,1,1,1,0,0,1,1,1,1,1,1,1,1,1,1,1,0,1,0,1,1,1,1,1,1,1,1,0,0,0,0,0,0,0,0,0,0,0,0,0,0,0,0,0,0,0,0,0,0,0,0,0,0,0,0,0,0,0,0,0,0,0,0,0,0,0,0],"id":19,"left_children":[1,3,5,7,9,11,13,15,17,19,21,23,25,-1,27,29,31,33,35,-1,37,39,41,43,45,47,49,-1,-1,51,53,55,57,59,61,63,65,67,69,71,-1,73,-1,75,77,79,81,83,85,87,89,-1,-1,-1,-1,-1,-1,-1,-1,-1,-1,-1,-1,-1,-1,-1,-1,-1,-1,-1,-1,-1,-1,-1,-1,-1,-1,-1,-1,-1,-1,-1,-1,-1,-1,-1,-1,-1,-1,-1,-1],"loss_changes":[4.8772254E-4,4.5412884E-4,4.8540192E-4,5.234909E-4,3.1139096E-4,3.962877E-4,9.9721685E-5,2.2886763E-4,6.1862153E-4,3.0582736E-4,9.156281E-5,1.2011114E-3,5.9395016E-4,0E0,1.1864991E-5,2.7277568E-4,1.5240622E-4,2.3429055E-4,1.8158095E-4,0E0,1.2016308E-4,1.9238138E-5,6.165673E-5,8.5375377E-4,2.6303977E-3,1.1377243E-3,9.847286E-5,0E0,0E0,9.107283E-5,3.7916063E-5,2.2470718E-5,2.9184102E-5,2.0803334E-5,1.07292086E-4,1.7057886E-5,4.6009343E-5,4.0207332E-4,4.1640364E-5,1.3210071E-6,0E0,3.835818E-6,0E0,3.1555053E-3,1.5745489E-3,2.1328419E-3,6.7966955E-4,3.9330078E-4,4.8746006E-4,1.5486003E-6,8.56327E-5,0E0,0E0,0E0,0E0,0E0,0E0,0E0,0E0,0E0,0E0,0E0,0E0,0E0,0E0,0E0,0E0,0E0,0E0,0E0,0E0,0E0,0E0,0E0,0E0,0E0,0E0,0E0,0E0,0E0,0E0,0E0,0E0,0E0,0E0,0E0,0E0,0E0,0E0,0E0,0E0],"parents":[2147483647,0,0,1,1,2,2,3,3,4,4,5,5,6,6,7,7,8,8,9,9,10,10,11,11,12,12,14,14,15,15,16,16,17,17,18,18,20,20,21,21,22,22,23,23,24,24,25,25,26,26,29,29,30,30,31,31,32,32,33,33,34,34,35,35,36,36,37,37,38,38,39,39,41,41,43,43,44,44,45,45,46,46,47,47,48,48,49,49,50,50],"right_children":[2,4,6,8,10,12,14,16,18,20,22,24,26,-1,28,30,32,34,36,-1,38,40,42,44,46,48,50,-1,-1,52,54,56,58,60,62,64,66,68,70,72,-1,74,-1,76,78,80,82,84,86,88,90,-1,-1,-1,-1,-1,-1,-1,-1,-1,-1,-1,-1,-1,-1,-1,-1,-1,-1,-1,-1,-1,-1,-1,-1,-1,-1,-1,-1,-1,-1,-1,-1,-1,-1,-1,-1,-1,-1,-1,-1],"split_conditions":[9.8833746E-1,8.682354E-2,2.1428573E-1,5.7103317E-2,1.1346701E-1,9.7295284E-1,6.428572E-1,4.6819143E-2,1.3300143E-2,9.4317615E-1,9.5062035E-1,9.471464E-1,1.4222945E-1,2.0565293E-4,3.5714287E-1,7.1428575E-2,5.2356277E-2,9.771712E-1,9.550868E-1,1.9702904E-3,6.6457495E-2,9.7965264E-1,1.5130095E-1,8.5714287E-1,8.5714287E-1,1.8426642E-1,4.7151744E-1,2.3970231E-3,1.1870562E-3,8.5714287E-1,9.588089E-1,7.8054257E-3,5.3474806E-2,9.540943E-1,9.684863E-1,6.7105636E-2,9.774194E-1,5.7526655E-2,8.96392E-2,9.44665E-1,-1.4732346E-3,9.6823823E-1,1.7227278E-3,4.71464E-1,4.71464E-1,9.6277916E-1,3.3705533E-2,9.895781E-1,9.987593E-1,9.9578166E-1,9.8039705E-1,9.5382525E-4,-3.1515074E-4,-2.6542512E-3,-2.9059284E-4,-1.5218715E-3,-3.4703766E-3,-7.472867E-4,6.7971257E-4,1.2163387E-3,-1.6821978E-4,5.6121685E-3,1.5322199E-3,-1.7159572E-4,-1.2509284E-3,1.4297777E-3,-4.5378844E-4,-1.9702655E-3,1.8686131E-3,-3.3348172E-3,-1.2824519E-3,5.9234353E-5,-3.16114E-4,-2.2186284E-4,2.8931425E-4,-7.927476E-4,1.3867446E-3,3.0064338E-4,-3.783248E-4,7.514158E-3,1.811176E-4,-1.1645051E-3,7.6217914E-4,-9.6192514E-4,1.8455115E-3,-1.7972961E-3,-5.8909697E-3,8.1468414E-4,1.8592404E-3,-1.7810316E-3,4.4522883E-4],"split_indices":[3,14,0,14,13,2,1,14,12,2,2,2,13,0,0,0,14,3,2,0,12,3,12,1,1,14,14,0,0,1,2,12,12,2,2,14,2,12,13,2,0,2,0,2,2,2,12,2,3,3,2,0,0,0,0,0,0,0,0,0,0,0,0,0,0,0,0,0,0,0,0,0,0,0,0,0,0,0,0,0,0,0,0,0,0,0,0,0,0,0,0],"split_type":[0,0,0,0,0,0,0,0,0,0,0,0,0,0,0,0,0,0,0,0,0,0,0,0,0,0,0,0,0,0,0,0,0,0,0,0,0,0,0,0,0,0,0,0,0,0,0,0,0,0,0,0,0,0,0,0,0,0,0,0,0,0,0,0,0,0,0,0,0,0,0,0,0,0,0,0,0,0,0,0,0,0,0,0,0,0,0,0,0,0,0],"sum_hessian":[2E3,1.19E2,1.881E3,7.6E1,4.3E1,1.866E3,1.5E1,5.4E1,2.2E1,3.3E1,1E1,1.819E3,4.7E1,4E0,1.1E1,4.3E1,1.1E1,8E0,1.4E1,1E0,3.2E1,4E0,6E0,1.719E3,1E2,3.4E1,1.3E1,6E0,5E0,3.8E1,5E0,7E0,4E0,4E0,4E0,9E0,5E0,2.1E1,1.1E1,2E0,2E0,4E0,2E0,4.8E2,1.239E3,1.4E1,8.6E1,2.2E1,1.2E1,6E0,7E0,5E0,3.3E1,4E0,1E0,4E0,3E0,3E0,1E0,3E0,1E0,2E0,2E0,2E0,7E0,4E0,1E0,1.9E1,2E0,8E0,3E0,1E0,1E0,3E0,1E0,4.11E2,6.9E1,6.79E2,5.6E2,8E0,6E0,2.1E1,6.5E1,1.7E1,5E0,7E0,5E0,3E0,3E0,1E0,6E0],"tree_param":{"num_deleted":"0","num_feature":"15","num_nodes":"91","size_leaf_vector":"0"}},{"base_weights":[-2.8950587E-4,-1.4235832E-4,-1.7505544E-3,-2.4067471E-4,3.0755878E-3,1.1386402E-2,-1.8852982E-3,4.091884E-4,-6.140446E-4,-2.8223393E-3,6.10295E-3,-3.9038584E-3,-1.3255123E-3,1.01986785E-4,5.053063E-3,1.2606842E-2,-6.964211E-4,-5.7561803E-3,1.0770592E-3,8.1438385E-3,-1.7744303E-5,-2.709652E-3,-1.0020385E-2,6.1187724E-4,-2.3312382E-3,-7.5099495E-4,9.861122E-4,-8.0583245E-4,5.2239536E-3,-2.554836E-3,-6.795475E-5,1.4630784E-3,-1.4711906E-2,-1.6600142E-3,4.9134046E-3,-5.0210475E-4,1.1195024E-2,1.4781753E-3,-5.764961E-4,-3.5637E-3,1.8698549E-3,-1.09666195E-2,-2.6446043E-3,-1.746489E-3,1.4025847E-3,-3.040869E-3,2.2426178E-5,2.0148603E-3,-9.3915395E-4,3.433013E-3,-5.9231365E-4,-1.6696515E-3,-5.668883E-3,2.6856164E-2,-1.6483878E-4,-3.6053272E-4,2.92092E-3,2.3889393E-3,-4.2817257E-3,6.6035786E-3,-7.855892E-5,2.026569E-3,-1.6827575E-3,1.405562E-2,2.1776967E-3,-9.773851E-4,6.873906E-5,-9.210328E-3,-3.0330946E-3,5.5104145E-3,-1.3280287E-3,-2.567309E-3,7.421834E-4,3.8365056E-3,-3.5155955E-4,-3.8890874E-3,2.2397656E-4,-1.0562683E-3,7.5658127E-3],"categories":[],"categories_nodes":[],"categories_segments":[],"categories_sizes":[],"default_left":[1,1,1,1,1,0,1,1,1,1,1,1,1,1,1,0,1,1,1,1,1,1,1,1,1,1,1,0,0,1,1,1,0,1,1,1,1,0,1,1,1,0,0,1,1,1,1,0,0,0,0,0,0,0,0,0,0,0,0,0,0,0,0,0,0,0,0,0,0,0,0,0,0,0,0,0,0,0,0],"id":20,"left_children":[1,3,5,7,9,-1,11,13,15,17,19,21,23,25,27,-1,29,31,33,35,37,39,41,43,45,47,49,-1,-1,51,53,55,-1,57,59,61,63,-1,65,67,69,-1,-1,71,73,75,77,-1,-1,-1,-1,-1,-1,-1,-1,-1,-1,-1,-1,-1,-1,-1,-1,-1,-1,-1,-1,-1,-1,-1,-1,-1,-1,-1,-1,-1,-1,-1,-1],"loss_changes":[4.2994518E-4,5.7622965E-4,3.453992E-4,4.287523E-4,9.814033E-4,0E0,2.004783E-4,9.196455E-4,1.230739E-3,2.2356382E-4,4.4984405E-4,2.577196E-4,2.8200803E-4,4.5775113E-4,4.4258777E-5,0E0,1.3032597E-3,7.3271536E-4,1.0265955E-4,7.1789115E-4,9.21064E-6,1.3964166E-4,1.28729735E-5,9.568849E-5,1.5874032E-4,1.6270223E-4,1.1529843E-3,0E0,0E0,7.6786976E-4,2.1825389E-3,1.9662843E-5,0E0,7.391992E-5,3.426792E-5,2.729411E-5,4.8528984E-4,0E0,2.1365254E-6,5.895202E-5,7.717051E-5,0E0,0E0,2.8461189E-5,1.6358779E-4,2.0303007E-4,1.9514275E-4,0E0,0E0,0E0,0E0,0E0,0E0,0E0,0E0,0E0,0E0,0E0,0E0,0E0,0E0,0E0,0E0,0E0,0E0,0E0,0E0,0E0,0E0,0E0,0E0,0E0,0E0,0E0,0E0,0E0,0E0,0E0,0E0],"parents":[2147483647,0,0,1,1,2,2,3,3,4,4,6,6,7,7,8,8,9,9,10,10,11,11,12,12,13,13,14,14,16,16,17,17,18,18,19,19,20,20,21,21,22,22,23,23,24,24,25,25,26,26,29,29,30,30,31,31,33,33,34,34,35,35,36,36,38,38,39,39,40,40,43,43,44,44,45,45,46,46],"right_children":[2,4,6,8,10,-1,12,14,16,18,20,22,24,26,28,-1,30,32,34,36,38,40,42,44,46,48,50,-1,-1,52,54,56,-1,58,60,62,64,-1,66,68,70,-1,-1,72,74,76,78,-1,-1,-1,-1,-1,-1,-1,-1,-1,-1,-1,-1,-1,-1,-1,-1,-1,-1,-1,-1,-1,-1,-1,-1,-1,-1,-1,-1,-1,-1,-1,-1],"split_conditions":[1.5913212E-1,3.6347095E-2,5.7276357E-6,5.332994E-3,9.570869E-1,3.4159208E-3,2.8572655E-1,3.9991893E-2,5E-1,6.474733E-2,4.807732E-1,2.5304064E-1,4.6499956E-1,4.9062343E-3,9.9330026E-1,3.7820528E-3,4.9470615E-2,3.1095337E-2,8.1312686E-1,4.9213737E-2,5.206023E-1,2.3972389E-1,9.436724E-1,7.55263E-2,8.70785E-1,3.8803084E-4,1.11302584E-1,-2.4174975E-4,1.5671862E-3,2.173847E-2,4.9775057E-2,5.248122E-3,-4.413572E-3,6.6302043E-1,9.17385E-1,6.3640396E-6,1.0376057E-1,4.434526E-4,5.795362E-1,3.4684017E-5,2.448416E-1,-3.289986E-3,-7.933813E-4,3.5558593E-1,1.968846E-1,2.1371889E-1,7.176557E-2,6.044581E-4,-2.817462E-4,1.029904E-3,-1.776941E-4,-5.008955E-4,-1.700665E-3,8.056849E-3,-4.945164E-5,-1.08159824E-4,8.7627606E-4,7.166818E-4,-1.2845178E-3,1.9810738E-3,-2.3567678E-5,6.0797075E-4,-5.048273E-4,4.2166864E-3,6.5330905E-4,-2.9321553E-4,2.0621717E-5,-2.7630983E-3,-9.099284E-4,1.6531245E-3,-3.9840865E-4,-7.701927E-4,2.2265503E-4,1.1509517E-3,-1.05467865E-4,-1.1667262E-3,6.7192974E-5,-3.1688053E-4,2.269744E-3],"split_indices":[6,6,9,13,7,0,6,12,1,12,12,6,6,12,3,0,12,12,7,14,12,6,2,14,6,11,14,0,0,13,12,12,0,7,7,8,6,0,12,9,6,0,0,6,14,14,14,0,0,0,0,0,0,0,0,0,0,0,0,0,0,0,0,0,0,0,0,0,0,0,0,0,0,0,0,0,0,0,0],"split_type":[0,0,0,0,0,0,0,0,0,0,0,0,0,0,0,0,0,0,0,0,0,0,0,0,0,0,0,0,0,0,0,0,0,0,0,0,0,0,0,0,0,0,0,0,0,0,0,0,0,0,0,0,0,0,0,0,0,0,0,0,0,0,0,0,0,0,0,0,0,0,0,0,0,0,0,0,0,0,0],"sum_hessian":[2E3,1.818E3,1.82E2,1.765E3,5.3E1,1E0,1.81E2,6.44E2,1.121E3,1.8E1,3.5E1,3.8E1,1.43E2,6.05E2,3.9E1,6E0,1.115E3,1E1,8E0,2.6E1,9E0,3.3E1,5E0,4.9E1,9.4E1,3.08E2,2.97E2,1E0,3.8E1,2.81E2,8.34E2,6E0,4E0,5E0,3E0,7E0,1.9E1,2E0,7E0,2.8E1,5E0,4E0,1E0,1.2E1,3.7E1,7.2E1,2.2E1,1.9E1,2.89E2,1.16E2,1.81E2,2.2E2,6.1E1,2E0,8.32E2,3E0,3E0,2E0,3E0,2E0,1E0,2E0,5E0,1.4E1,5E0,4E0,3E0,1E0,2.7E1,2E0,3E0,9E0,3E0,1.5E1,2.2E1,5.7E1,1.5E1,2E1,2E0],"tree_param":{"num_deleted":"0","num_feature":"15","num_nodes":"79","size_leaf_vector":"0"}},{"base_weights":[-1.9603784E-4,-1.139553E-5,-1.1242204E-3,-2.7871712E-3,6.7187284E-5,-5.382398E-4,-1.02386065E-2,-2.3654006E-4,-6.091165E-3,-2.4373448E-4,6.589291E-4,1.1738994E-3,-1.9305714E-3,-1.6105903E-2,-1.2779203E-3,-6.1303605E-3,4.8018E-4,-1.2144558E-2,-3.8187816E-3,1.9673469E-4,-2.9558619E-3,7.4691977E-3,4.577856E-4,